#pragma GCC target("avx2")
#pragma GCC optimize("O3")
#pragma GCC optimize("unroll-loops")
#pragma GCC target("sse,sse2,sse3,ssse3,sse4,popcnt,abm,mmx")

#include <iostream>
#include <algorithm>
#include <vector>
#include <chrono>
#include <string>
#include <unordered_map>
#include <random>
#include <cmath>

using namespace std;

#define hw 8
#define hw_m1 7
#define hw_p1 9
#define hw2 64
#define hw2_m1 63
#define hw2_mhw 56
#define window 0.00001
#define simple_threshold 3
#define inf 100000.0
#define param_num 36
#define board_index_num 38
#define pattern_num 5
#define char_s 35
#define char_e 91
#define num_s 93
#define num_e 126
#define pattern_elem_num 85293
#define hash_table_size 16384
#define hash_mask (hash_table_size - 1)
#define stage1 128
#define stage2 64
#define stage3 64

const int consts[476] = {
    8, 8, 8, 8, 8, 8, 8, 8, 8, 8, 8, 8, 8, 8, 8, 8, 3, 4, 5, 6, 7, 8, 7, 6, 5, 4, 3, 3, 4, 5, 6, 7, 8, 7, 6, 5, 4, 3, 0, 1, 2, 3, 4, 5, 6, 7, 8, 9, 10, 11, 12, 13, 14, 15, 16, 17, 18, 19, 20, 21, 22, 23, 24, 25, 26, 27, 28, 29, 30, 31, 32, 33, 34, 35, 36, 37, 38, 39, 40, 41, 42, 43, 44, 45, 46, 47, 48, 49, 50, 51, 52, 53, 54, 55, 56, 57, 58, 59, 60, 61,
    62, 63, 0, 8, 16, 24, 32, 40, 48, 56, 1, 9, 17, 25, 33, 41, 49, 57, 2, 10, 18, 26, 34, 42, 50, 58, 3, 11, 19, 27, 35, 43, 51, 59, 4, 12, 20, 28, 36, 44, 52, 60, 5, 13, 21, 29, 37, 45, 53, 61, 6, 14, 22, 30, 38, 46, 54, 62, 7, 15, 23, 31, 39, 47, 55, 63, 5, 14, 23, 4, 13, 22, 31, 3, 12, 21, 30, 39, 2, 11, 20, 29, 38, 47, 1, 10, 19, 28, 37, 46, 55, 0, 9, 18, 27, 36, 45, 54, 63, 8,
    17, 26, 35, 44, 53, 62, 16, 25, 34, 43, 52, 61, 24, 33, 42, 51, 60, 32, 41, 50, 59, 40, 49, 58, 2, 9, 16, 3, 10, 17, 24, 4, 11, 18, 25, 32, 5, 12, 19, 26, 33, 40, 6, 13, 20, 27, 34, 41, 48, 7, 14, 21, 28, 35, 42, 49, 56, 15, 22, 29, 36, 43, 50, 57, 23, 30, 37, 44, 51, 58, 31, 38, 45, 52, 59, 39, 46, 53, 60, 47, 54, 61, 10, 8, 8, 8, 8, 4, 4, 8, 2, 4, 54, 63, 62, 61, 60, 59, 58, 57,
    56, 49, 49, 56, 48, 40, 32, 24, 16, 8, 0, 9, 9, 0, 1, 2, 3, 4, 5, 6, 7, 14, 14, 7, 15, 23, 31, 39, 47, 55, 63, 54, 3, 2, 1, 0, 9, 8, 16, 24, 4, 5, 6, 7, 14, 15, 23, 31, 60, 61, 62, 63, 54, 55, 47, 39, 59, 58, 57, 56, 49, 48, 40, 32, 0, 1, 2, 3, 8, 9, 10, 11, 0, 8, 16, 24, 1, 9, 17, 25, 7, 6, 5, 4, 15, 14, 13, 12, 7, 15, 23, 31, 6, 14, 22, 30, 63, 62, 61, 60,
    55, 54, 53, 52, 63, 55, 47, 39, 62, 54, 46, 38, 56, 57, 58, 59, 48, 49, 50, 51, 56, 48, 40, 32, 57, 49, 41, 33, 0, 9, 18, 27, 36, 45, 54, 63, 7, 14, 21, 28, 35, 42, 49, 56, 0, 1, 2, 3, 4, 5, 6, 7, 7, 15, 23, 31, 39, 47, 55, 63, 63, 62, 61, 60, 59, 58, 57, 56, 56, 48, 40, 32, 24, 26, 8, 0
};

const double b1[stage2] = {0.10285164,0.024946677,0.05527426,-0.037989806,0.005993079,-0.0017300711,0.017800469,-0.010641733,0.07353697,-0.03973972,-0.02248924,-0.00957244,-0.020185217,-0.041169494,-0.15646167,0.018768331,0.044651568,0.024137067,-0.14296214,0.035557356,-0.022881372,-0.0295717,0.07179774,-0.012898207,0.0107909,0.020620344,0.115722224,0.053838633,-0.08801067,0.05024943,-0.006529079,0.03645589,-0.05284632,0.07734408,-0.04919611,-0.06837879,0.021810353,0.037080582,-0.018599572,0.023186846,0.0047173137,0.013108099,-0.05086369,0.04321013,-0.111195445,0.0089589795,-0.02746556,0.013457777,-0.023064457,0.044377737,-0.004174462,0.0074119093,-0.04102179,-0.06753329,-0.03205203,0.02664295,-0.031799175,-0.009362553,0.050480902,0.038730085,-0.022718301,-0.0057385336,0.02453644,0.030492138};

const double b2[stage3] = {0.011863562,-0.046554025,0.07724611,-0.004481766,-0.008041682,0.016139003,-0.0149739105,0.00526898,-0.0019657542,0.043150127,0.017727697,0.072686635,-0.05931832,-0.076921485,0.00023301577,0.057454858,0.031459123,0.009547332,-0.031726684,0.016518772,0.07550605,0.010100326,-0.00058371597,0.089539036,-0.0121679995,-0.06046368,-0.041058786,-0.08848667,-0.043389697,0.017775435,-0.044446412,0.0261134,-0.06764607,0.005345951,0.06213956,0.101181276,-0.056760684,0.03810504,-0.1379987,0.07623626,-0.0021508012,0.055497568,0.085864335,0.03125034,-0.02601949,0.03559946,0.0787628,-0.06699201,-0.031911798,0.0044507,-0.08742161,0.01973178,-0.026494524,0.0006958851,-0.018768122,-0.0076467213,0.04278167,0.019558065,0.05823543,0.007994803,0.013120202,0.04935239,-0.05787807,0.04376248};

const double w1[stage1][stage2] = {
{0.27200818,0.15277125,0.29458323,-0.22277759,0.32016027,0.12714425,-0.23209737,-0.18478428,0.49561098,0.20020479,-0.13387,0.2524943,-0.20979635,-0.3218074,-0.14773566,-0.08742996,0.6407607,-0.09729001,-0.45759284,0.40287626,0.19735807,0.3793082,-0.034812976,0.1448284,0.59806705,0.24779566,0.35069072,-0.24107894,0.0755885,-0.32271364,0.37390825,-0.4342623,-0.4676869,0.224171,0.109662704,0.055257212,0.12696502,-0.1473544,0.017439073,0.40139863,-0.12792037,0.10173556,-0.195018,-0.12959966,-0.010334291,0.028076267,-0.19016066,-0.06653855,-0.06112461,0.26780415,-0.46832067,0.29237795,-0.051994722,0.20093185,0.109026976,-0.0839971,0.18246706,-0.55305153,0.41736826,0.1607928,0.012007155,0.0792113,-0.21330807,-0.18950062},
{0.33789247,-0.32122555,-0.07157405,-0.41166434,0.11254262,0.20783037,-0.07811051,0.14708556,-0.5097772,-0.23101792,0.0826635,-0.009468341,-0.034239415,-0.1340872,-0.5175336,-0.041937437,-0.035308633,0.20881735,-0.035493966,0.22980109,-0.2559803,-0.03799051,-0.33054116,0.103186496,0.088831484,-0.04688255,-0.698201,-0.19449662,-0.30255854,0.28388286,0.02717308,0.1684627,0.615484,-0.39400503,0.40005016,0.22382718,0.23319693,-0.08525332,-0.11617149,0.18463987,0.1615652,0.06161379,0.123804785,0.36863226,-0.21788728,-0.23430692,0.40943232,-0.27128276,0.37742153,-0.070157245,-0.024430562,0.05954606,0.42613134,0.30039254,-0.32420412,-0.38627085,0.28043064,0.2900761,0.14908673,0.22770475,0.17570218,-0.24960917,-0.08347078,0.07905937},
{-0.32213277,-0.43266538,-0.07517634,-0.045525245,0.12450091,-0.24489991,0.24103083,0.09347274,0.3626242,0.13966481,0.11991747,0.09070081,-0.045924623,-0.21532734,-0.20767328,0.09954567,0.02041633,0.12725265,-0.08605535,0.12401643,-0.27145907,0.018681578,0.047191598,0.057519756,0.29876265,0.08898639,0.026269652,0.04969258,-0.3305973,-0.0371726,-0.36087292,0.36049384,-0.42467242,-0.2954961,0.10583396,0.25324127,-0.06469156,0.05824659,-0.0945021,-0.03642455,-0.06544698,-0.12948923,-0.1517532,-0.08212965,0.055368602,-0.077957384,-0.2337915,-0.15481673,-0.16528693,0.09432803,0.16967005,-0.08967549,-0.13863738,-0.08306619,0.1809614,0.07515299,-0.06151883,-0.35058227,0.041308485,0.20871188,-0.19392602,-0.05095979,-0.12629004,0.13279277},
{-0.027354168,0.018926501,0.0042285603,0.021456638,0.07862408,-0.023485593,0.31138867,0.05475905,0.024271514,-0.29558486,0.15042447,-0.25159773,-0.17497434,0.21210402,-0.0928593,0.08838598,0.35844433,-0.25641426,-0.32311782,0.23444696,0.34865528,-0.3216404,-0.34464446,-0.028649295,0.25524172,-0.1691771,0.2603048,0.14225157,-0.3997464,-0.14068882,0.04112279,0.33386257,-0.26833412,0.09432004,0.20426111,0.081076704,-0.15269263,-0.26281443,0.08442109,-0.022942873,0.16083911,0.23696983,0.26356006,-0.14557031,0.23585099,-0.061821967,0.062049184,-0.39620483,0.13098021,-0.008508346,0.18599312,0.26898804,0.02094382,-0.25537154,0.3094084,-0.1883081,-0.0052724974,0.07146094,0.20356011,0.15816607,0.4080924,-0.12742357,0.0060385796,-0.3185764},
{0.023735866,-0.3433026,-0.16249259,-0.047065105,-0.11622512,-0.10528896,-0.091230154,0.18124063,-0.06708185,0.27903807,0.015332427,-0.059940025,0.21331358,0.013652096,0.40156507,-0.22773224,-0.19848064,-0.06784605,-0.29060203,-0.019454587,-0.07670305,-0.31781596,0.18978806,0.25542492,0.091131054,-0.35807484,-0.27938324,0.119121715,0.11247745,0.029530136,0.093191326,-0.042765763,-0.17288098,0.12253337,0.2254385,-0.16960016,-0.31059602,-0.30532584,0.10837518,-0.33587614,-0.015618915,0.3016208,-0.097250916,0.28154314,-0.13239159,-0.13436954,-0.16797934,-0.26182356,-0.1055248,0.064866945,-0.11305272,0.011237171,0.21980444,-0.1271099,0.050927434,-0.14814807,0.347295,0.15273131,0.42459717,0.026099708,0.0252426,0.03057323,0.16697015,0.022571256},
{-0.03341053,-0.23141035,-0.15181264,0.07289806,-0.39654568,-0.15272422,-0.2042195,0.058988396,0.05535487,0.2696044,0.22063388,-0.09224492,-0.19139294,-0.032732032,0.24288842,-0.081749246,0.4480873,0.30553362,-0.30171892,-0.06000947,-0.038132332,-0.076777846,-0.05173845,-0.27831432,-0.29265803,-0.23368068,-0.391952,-0.053725217,0.17626905,-0.24910179,-0.03281609,-0.16911328,0.17795873,-0.03675668,0.14062259,-0.06007608,-0.23455797,0.30094725,0.6118457,-0.033255197,0.36932307,-0.12016017,-0.35865062,-0.29390872,-0.110608116,-0.11183848,0.23727418,0.041139428,0.24416964,-0.34825712,0.0031185132,-0.3796147,-0.16535777,0.44688442,-0.04894781,0.053816706,0.16946004,-0.27116227,-0.23497404,0.11971437,-0.0356176,-0.20302328,-0.12151549,-0.012827833},
{-0.3384236,0.102733836,0.121473424,0.024645949,-0.29752538,-0.08794712,0.019339714,0.02238967,-0.19001193,-0.13564357,0.41234267,0.0021903845,-0.061505523,0.14151794,-0.21499714,-0.16753036,-0.022642246,0.23039679,0.17901696,-0.054094143,0.49349326,0.03254579,-0.26397413,0.13092278,0.023917263,-0.10455078,-0.11137651,-0.072511494,-0.18440656,0.004941642,0.47878584,0.224561,-0.019530714,-0.21937476,0.08301538,-0.38834292,-0.34615377,0.19183336,-0.196707,-0.17735416,0.15529357,0.23131472,-0.2092794,-0.26460642,-0.10877073,-0.17696506,0.007670625,-0.022297641,0.26931968,0.12653303,0.18531328,-0.0005022577,-0.19482252,-0.49449584,0.07447288,-0.36925504,-0.34861296,-0.02769173,0.08886243,0.38692272,-0.05745629,0.040380683,0.22108209,-0.32598615},
{-0.22536412,0.040234186,-0.102998555,0.20098166,-0.39562201,-0.15569724,0.16295518,0.38911337,0.28483295,-0.48858842,0.16297361,0.3342233,0.17505373,0.03301479,0.111989014,-0.0071134204,-0.013949149,0.011111721,0.20785587,-0.6418899,0.265833,-0.17754002,-0.28005803,-0.01789333,-0.09128184,-0.01651807,-0.3700521,-0.36517778,-0.20680171,-0.03916356,0.031692456,-0.26183623,-0.012329373,-0.16844249,0.06176104,0.022953972,-0.0695483,0.19776282,-0.071305335,-0.14072,-0.10318533,-0.07900589,-0.20404619,-0.22195047,-0.2187554,0.41043386,-0.3721622,0.3100234,-0.47468534,0.24472417,-0.025027085,0.29203412,-0.117124654,-0.35884616,-0.141392,0.39577633,-0.6935617,-0.020219387,-0.09417522,0.31573206,-0.07772558,0.18803842,-0.1110191,0.25667968},
{0.22217223,-0.070902474,0.043465674,0.2996101,0.31328422,0.06650118,-0.10254812,-0.021519799,-0.3434281,-0.08389594,-0.2129849,-0.2771194,-0.3603714,0.24990489,0.17521796,-0.32139367,0.3801454,0.28064027,0.08800249,0.1871212,-0.067346044,-0.15615462,-0.29381233,-0.09162686,-0.14424093,-0.16662122,-0.2672949,0.14687653,0.39587328,0.22057928,-0.04505416,0.01162894,0.5686895,0.0193305,0.27532586,-0.33347163,-0.092688814,-0.19061401,0.05441153,-0.07645629,0.15659098,0.13177662,0.24457015,0.008873156,0.1397422,-0.34154546,-0.26607305,-0.03308793,-0.36904135,-0.188756,0.2602936,-0.17546149,-0.10778584,0.009778379,-0.55967814,0.019671228,0.086390115,-0.04603064,0.2006359,-0.28643835,0.09448769,-0.1829569,-0.031773586,-0.36928585},
{0.01700232,-0.2436341,-0.10581285,0.02223783,0.2408161,0.13860777,-0.21529788,0.13038652,-0.2860305,-0.15941466,0.01606328,0.4807546,-0.28328094,-0.23943499,0.15643016,0.24945447,0.07192134,-0.23338898,-0.5935528,-0.38777706,-0.26259413,0.18950133,0.248781,-0.05145168,0.0527491,0.023364674,0.44443703,0.13466474,0.079164356,-0.11515638,-0.08841344,-0.3042103,-0.20985803,-0.11663659,0.46526083,-0.32160798,-0.117358215,0.22205815,0.20984916,-0.28893062,-0.09445421,-0.17462881,-0.14505437,0.2449147,-0.12525222,-0.42151755,0.10614757,-0.035823915,-0.09041916,0.15899664,-0.26044238,0.17238373,-0.267738,-0.33158383,-0.41994363,-0.092662334,0.0006889408,0.20826128,0.48720002,0.3110146,0.0045949896,0.28902292,0.22685827,0.1440902},
{0.1864591,-0.4376177,-0.28855386,0.052987214,0.07764869,0.0942072,0.12182459,0.09463949,-0.3270572,0.34164476,0.1075684,-0.1632973,0.028813008,0.0068647433,0.39186323,0.15850514,0.0006179088,-0.42532274,-0.12705512,0.16089743,0.06255733,0.060727146,-0.025519133,-0.18302494,-0.044906415,0.09818225,0.016376955,0.36610332,0.0265527,-0.024704669,-0.022152103,0.22092463,0.15061519,-0.17510357,0.007229781,0.16216862,-0.19541582,-0.08866879,-0.05302584,0.18539739,-0.070255846,-0.070432864,-0.00454577,-0.08664473,0.44754022,-0.1955614,-0.0551498,-0.09616549,-0.24714737,-0.17798956,0.0005716347,-0.29839706,0.15077576,-0.1777699,0.105730176,0.34599593,0.07891447,0.119367845,-0.049872104,0.12097877,-0.07465253,-0.21004823,-0.057160772,0.06616379},
{-0.23077397,-0.022306843,-0.18300642,-0.2263131,-0.18429162,0.15617125,0.34080482,-0.13370031,-0.21162175,0.18841487,-0.11138449,-0.15588397,-0.07193043,-0.33892226,-0.13294041,0.1809661,-0.28893808,0.19182654,0.17011482,-0.02027361,-0.012013148,-0.05729029,-0.16955385,0.19250791,-0.016853493,-0.011474767,0.04559525,0.069141336,-0.45776233,-0.014241901,-0.18931413,-0.0068601775,-0.30669168,0.22442357,0.16353853,0.013663061,0.008401022,-0.1759182,0.011751464,0.3218168,-0.026200948,0.013698828,0.26413912,-0.19168383,-0.27963722,-0.039134264,-0.227236,0.029765368,-0.14304996,-0.013000004,0.3584441,-0.05929018,0.51121753,0.022722578,-0.13639657,0.2414667,-0.035939418,-0.07767085,-0.014217271,-0.010029944,0.07095132,0.07384287,-0.1633262,0.095357955},
{0.20187624,-0.061014187,0.002507282,0.19678898,-0.25087973,-0.03568815,0.26303393,0.1258907,0.03894391,0.18143849,0.31072146,0.04136312,-0.026796442,-0.41451737,0.09324568,-0.41754055,-0.41699374,0.10952976,0.09605057,-0.14677776,0.20309667,0.12103252,0.21740681,-0.21879408,-0.0467683,0.2451517,-0.03934964,-0.06090674,-0.18537709,-0.060402505,0.15573215,-0.096885085,-0.12750158,0.16580997,0.10608445,-0.2714692,-0.32565978,0.13910143,0.1349473,0.07188784,0.23640339,0.06878795,0.19745694,-0.28604114,-0.017875886,-0.13302611,0.16351815,0.1333663,0.057510953,-0.10374374,0.12847471,-0.011222083,0.22894824,0.12747112,-0.14369385,-0.10669142,-0.23607947,0.22040509,-0.3184063,0.14210972,-0.09754679,0.17667334,-0.060431693,-0.15529333},
{-0.14706294,0.17995526,0.11061296,-0.064978406,-0.46686664,-0.26940367,0.016301185,-0.15728882,-0.12165011,0.38344526,-0.3295606,0.08562176,-0.15262404,0.23724383,-0.028209355,-0.11990296,0.06810243,-0.2783969,0.20970534,0.09248045,0.012872679,0.03046981,0.084534965,0.0034875113,0.1295058,-0.11773655,-0.2760905,-0.0205093,-0.08308995,0.059375923,-0.48067036,0.2684697,-0.102385454,0.048034307,-0.039734628,-0.15361746,-0.17180376,0.17946258,0.23583832,0.18426165,0.054753896,-0.046892647,-0.04233181,0.1535286,0.0033706643,0.30407488,-0.13201421,-0.11457883,0.045033626,0.2083047,0.08175677,0.13632676,-0.08613322,0.028307509,-0.0882945,0.07776402,-0.006904893,-0.27170098,-0.010236009,0.03733995,0.18118662,0.06496256,0.028271332,0.026610537},
{-0.3120315,0.084627114,0.10996522,0.059271127,-0.16050154,-0.31088135,-0.047757603,0.003977755,0.05932207,0.22657897,0.022867665,-0.18982856,0.005998772,0.25790298,0.09464242,0.13463369,-0.07071478,-0.017898548,-0.22692423,0.03319343,-0.17521754,-0.009444285,-0.11714085,-0.35123768,-0.08917603,0.051999874,-0.4121183,-0.18942717,-0.082755916,0.33653334,-0.10450615,-0.28815714,0.23847318,-0.14951928,-0.015383725,0.00041027722,-0.22220042,0.1455974,-0.055376302,0.25470027,-0.11956106,0.023386575,0.10902523,0.11063623,0.11023101,0.32350692,-0.044739548,0.09916258,-0.15867136,0.20840624,-0.36597577,0.33902735,-0.062205646,0.0163394,0.4200209,0.09448659,0.19339015,-0.21471739,0.3480164,-0.0719855,0.41593853,0.39540282,0.14632873,-0.08553449},
{-0.29655418,0.2234206,-0.4774916,0.19308606,-0.3733824,0.1730247,-0.12668073,-0.08331472,-0.37208107,-0.06240151,0.46254727,-0.18036853,-0.28913265,0.3506326,0.11866364,-0.3316269,-0.038044374,-0.21299511,-0.60979366,0.12602864,-0.2626751,0.037200358,-0.22393055,0.039978825,0.019626377,-0.0778273,-0.20088398,0.009109155,0.0041936086,-0.5184749,0.11944586,0.3360097,-0.50105786,-0.22454219,-0.1200143,-0.2222673,0.0081921,0.22757055,-0.46831027,-0.1345417,0.0030938026,0.1159603,0.03350632,-0.07455373,-0.012249914,-0.14488798,0.096889324,0.054859675,0.37488073,0.10044041,-0.161007,0.0059542544,-0.017936803,-0.47968656,0.07154629,0.051021263,-0.2183243,-0.060530152,-0.019708563,-0.19372839,0.50598055,-0.33369628,-0.23089434,-0.14466822},
{0.30054542,-0.35727727,0.1405698,-0.37969694,-0.15996417,0.039519332,-0.3466386,-0.15545297,-0.17453435,0.13161968,-0.008877976,-0.08456889,-0.060076423,-0.32360238,-0.40590334,-0.072930165,0.38486624,-0.20733818,-0.2654041,0.0127587225,-0.29007804,0.2709562,0.10924367,-0.13805842,-0.19922668,-0.12392292,0.20985574,-0.3869632,0.1365316,-0.15575105,-0.27312818,-0.088394776,-0.38126633,0.100118145,-0.2767057,-0.19541964,-0.21129537,0.085740425,-0.16861174,0.1648723,-0.26499513,0.10265801,-0.13080318,-0.13189954,-0.18208869,0.4559045,0.18868326,0.21203376,0.00085541233,-0.15837261,-0.109698564,-0.42112944,0.047844406,-0.25466922,-0.059181515,0.14217484,-0.048173483,-0.37499955,0.46964782,-0.08922901,0.113592066,0.22843027,0.09407095,-0.4788793},
{0.42856485,-0.29617307,-0.048754577,0.124852926,0.14796236,-0.3090017,-0.014867507,0.13209613,-0.108871765,-0.40970266,0.104771666,-0.15400738,-0.19908533,0.044775326,0.16346478,-0.010995176,0.045207255,0.15917568,0.138542,-0.22437306,0.47020847,-0.007487601,0.22418419,0.029145405,-0.116739295,-0.020593293,0.05852018,0.08700983,0.2845539,-0.016075045,0.050232742,0.22995101,0.11465471,-0.23690861,0.10169122,-0.18893626,-0.08175176,0.14180957,0.0810459,-0.023873538,0.24621907,-0.46131375,-0.012760443,0.10007595,-0.011764359,0.035981268,0.118685275,0.12084874,-0.24131216,-0.119705305,0.17395627,-0.1747756,0.21083471,-0.09200544,-0.24391739,-0.26739725,-0.060645644,0.02316921,0.0026430008,0.23507227,-0.37473378,-0.13388312,-0.40729836,-0.035125192},
{-0.17525738,-0.19893205,0.017643873,-0.021352295,0.08211119,-0.36132196,-0.17460747,0.13395794,0.08531053,0.17794336,-0.30662885,0.27758187,0.053368308,-0.094555505,0.2354919,-0.2757872,-0.10459454,0.17728926,-0.062291082,0.38884872,0.17489168,-0.25965422,-0.09544566,0.26883593,-0.054108847,-0.101795256,-0.19218962,-0.00072856824,0.25161836,0.09547324,-0.078726344,-0.21034583,-0.025502121,0.083361715,-0.05707926,-0.17669247,-0.12536155,-0.15092364,-0.19778897,-0.19299436,0.047506485,-0.20307438,0.062057853,-0.033532094,0.19706467,-0.17325504,-0.2361972,-0.24329317,0.10964855,-0.17244752,0.3625772,-0.16634992,0.017017188,0.26448926,0.060565863,0.018898636,-0.13169281,-0.28103617,0.0022474017,0.15865126,-0.17845021,-0.16063564,-0.30727944,-0.029010594},
{0.17798941,-0.17260998,0.08108151,0.11339024,1.121308e-05,0.17945474,-0.17139968,-0.34619176,-0.033797774,0.10206146,0.25760567,0.26921493,0.004127932,-0.008990924,-0.005299771,0.27196914,-0.005731518,-0.10567947,-0.14594272,-0.26657417,0.036549408,0.053708985,-0.17093685,0.011415798,0.2330462,-0.27085537,0.07837219,0.006079068,-0.0024941992,0.1151951,0.23293875,0.07306938,0.01412733,-0.06609566,0.03916161,0.13055754,-0.1737896,0.3105138,-0.13055009,0.08504993,-0.30461895,-0.0989009,-0.086665735,-0.14208478,-0.019887742,0.06990542,0.091820985,0.08017329,0.045444213,-0.0147829745,-0.03403432,-0.051133297,-0.007917376,0.017937183,0.14147228,0.008871666,-0.2951516,0.12924409,0.031813517,-0.2309779,-0.40404862,-0.10127582,0.07765336,0.17341511},
{-0.08457657,0.10762802,0.17208242,-0.46592668,0.19310641,0.21762373,-0.18890661,-0.15484405,0.2291037,0.15607305,0.09302687,-0.23127568,0.1166712,-0.2551386,-0.23331514,0.014767553,-0.115110464,-0.12362889,-0.0050740074,0.027623199,-0.085297644,-0.2748062,-0.093952216,0.33988452,0.04758079,-0.06288389,0.1820576,-0.021679023,0.08349097,0.23452902,0.39817402,-0.1318062,-0.17551331,-0.018859161,0.14164181,0.12221084,-0.11112309,0.060177356,0.06585242,0.26491436,-0.19750574,-0.10121718,-0.0704538,0.06735414,-0.2350217,-0.002566681,-0.19274291,-0.08490267,0.2481938,-0.07054999,0.17488289,-0.22154781,0.22883663,-0.3043377,-0.028698768,-0.06784825,-0.09638433,-0.04408082,0.13543643,0.33128196,0.1240416,-0.30012453,-0.101988204,-0.048001327},
{0.103503875,0.009583186,0.054877363,-0.06718434,0.25171363,0.010132235,0.12663493,-0.1865144,-0.059557773,-0.16956158,0.036472283,0.10070594,0.0056166938,-0.030387118,0.22767806,-0.098743126,0.027660226,0.06841236,0.16599886,-0.22913487,0.080714725,0.0060014846,0.24232985,-0.034631684,0.0014234552,0.2639891,0.030093305,0.034596555,-0.20515203,0.28761843,-0.09734618,0.011258369,-0.12349733,-0.03330046,0.16862601,0.14893705,0.066388845,-0.00800857,0.061593,0.31741288,-0.036136836,0.23444854,0.038463347,-0.17579164,0.047823027,0.27272755,0.20018126,-0.08722418,0.10116833,0.18377705,-0.023116533,0.15470187,-0.10836452,-0.10070118,0.05595453,0.05112911,-0.10992807,0.032557014,-0.04539549,0.14873618,-0.16867454,0.21870574,-0.08211743,0.24187009},
{0.093031704,-0.18868451,0.15721053,-0.18295437,-0.015882872,-0.17306852,0.123126544,-0.17390972,0.0037989707,-0.29786807,-0.08195795,-0.22775511,0.26216102,0.07338621,-0.11384414,0.23658782,0.017527787,0.14654651,0.07951947,0.022907745,0.20437297,0.021812232,0.04954717,0.023206012,-0.020206688,-0.064912684,0.4465162,0.10395155,-0.2171937,0.18848717,-0.06312099,-0.1468273,0.34746033,-0.04468342,-0.073538974,0.054936923,0.20870216,0.20869426,0.14690664,0.110631645,0.13110873,0.015666155,0.24715829,-0.23923017,0.0583753,-0.3467217,-0.0011005233,-0.10192444,-0.08034867,-0.06311585,0.01672758,-0.18866006,-0.16558751,0.08275387,0.05121483,0.09789813,-0.0018514011,0.014814437,-0.04935906,-0.0551549,-0.102219015,0.026785277,-0.4169748,0.011459701},
{0.012292938,0.12891449,-0.028350081,0.18502356,-0.056610733,0.13540618,-0.014818783,0.04158278,-0.15257399,-0.36024612,-0.055773314,0.16256833,0.098154224,-0.1712918,0.14616536,0.1506426,0.51024055,0.4602073,-0.06720996,-0.15334557,-0.1761273,-0.33414525,0.20780684,0.4036532,0.11327478,0.15972139,-0.17721936,-0.039243296,-0.15949982,-0.03861233,-0.09753561,-0.16790351,0.14512762,-0.19856398,-0.0099184755,-0.13512492,0.33461,-0.07328966,0.0628023,0.29363275,0.0937695,0.3435427,0.24630377,0.02416398,-0.0980907,-0.11522949,0.15907635,0.3393086,0.20855027,-0.051152963,-0.2715335,-0.21218437,0.1605761,0.09561649,0.013893048,-0.14535452,-0.21415822,0.2155705,-0.17041394,0.011484259,0.32831135,0.1564143,-0.1478328,-0.08642076},
{-0.042151734,-0.20240524,0.11883423,-0.44554904,-0.036119793,0.27871093,-0.42202848,-0.51185286,-0.013134845,-0.18765885,0.014226865,-0.1897707,-0.021575019,0.21911813,-0.020506144,0.10173083,0.22351977,0.20059226,-0.34853458,-0.3112389,0.20839125,0.17417142,0.026163174,0.010605511,-0.23758297,0.036455136,0.015095669,-0.08446652,-0.13879672,0.15842266,-0.0556048,-0.20242405,-0.14929768,0.12364452,-0.15223305,-0.3208734,-0.034251582,-0.037700348,-0.21001497,0.11128515,-0.03449605,-0.11125859,-0.08239576,0.12090776,-0.023307536,0.08457506,-0.23554868,0.019572956,0.06614037,0.011985823,0.13948786,0.040938612,0.10408665,0.09216695,-0.15787156,0.043875877,-0.33741596,-0.17776878,0.13014974,-0.045656238,-0.27588576,-0.03847231,0.035565723,0.14156058},
{0.29427573,0.26850262,-0.19777492,0.2651978,-0.31940985,-0.27597034,0.30346224,0.10222544,0.1849846,0.036810655,-0.117984734,-0.10430054,-0.111942515,-0.15342428,-0.007056045,-0.015317135,0.16657165,0.09399922,0.23777643,0.048146423,-0.24328347,-0.09275871,-0.002629088,0.18136187,-0.015604841,-0.24381092,-0.13008638,-0.078122586,0.04324131,0.019055553,-0.26543567,0.3062891,-0.0020413978,0.10450223,-0.055991508,-0.09577107,0.06493105,-0.05959166,0.012593476,0.1834625,0.38079557,-0.19725093,-0.4357596,0.05140861,0.18967107,0.38305083,-0.4675589,0.13914862,-0.17049721,-0.046949416,0.18565582,-0.11345352,-0.14911026,-0.11172868,0.05636066,-0.23558158,0.13039532,-0.14625393,0.06281708,-0.09281428,0.23068208,0.40331084,-0.0049879756,-0.050736617},
{0.05113522,-0.0646007,-0.10840023,-0.12654005,0.10773905,0.10797847,0.009411292,0.15353243,0.0033103246,-0.12905614,0.17540632,0.19777167,-0.08717437,0.111093685,-0.07499893,-0.44203344,-0.12278009,0.06823514,-0.15707752,0.08171101,0.039730325,-0.14222223,-0.17828132,0.045341436,0.081621304,0.14830443,-0.21219833,-0.19033551,0.22262068,0.07248395,0.023542512,-0.07965767,-0.34442464,-0.06302752,-0.24037892,0.02935381,-0.030353134,0.2633982,-0.1122675,0.16015995,0.12514919,0.19052109,-0.24344325,0.315582,-0.2416414,0.0574307,-0.18784218,-0.31743595,-0.2030422,-0.2577664,0.05344691,0.0020073007,-0.17002304,0.11629617,0.16828652,0.14108887,0.05065584,0.048437584,-0.20108847,-0.24859713,-0.0843748,-0.13853934,0.3445406,0.17018981},
{0.18284935,-0.19529529,-0.0070507494,0.057031512,-0.12930363,0.017183714,-0.12721896,0.19976366,0.07345613,-0.111752264,0.082525924,0.0006243476,-0.09723425,0.0848059,-0.15875334,0.20479648,0.10245856,0.13405465,-0.0012416553,0.14577474,-0.08985722,-0.02864587,0.10488755,-0.34294418,-0.10651974,0.07636493,0.029165797,0.3011547,-0.38875523,0.115884244,0.021237994,-0.15059124,-0.04982824,-0.13904782,-0.30656388,-0.37652376,0.18899745,0.060686983,-0.16890365,0.15803677,-0.05629518,-0.17808767,0.1806857,-0.019539403,0.12769121,0.041054852,0.07126273,-0.0037899786,-0.06948973,-0.034332074,0.036270108,0.096314564,0.10715337,0.18634349,-0.047361363,-0.08548646,0.099730715,0.048474673,0.042002466,0.11059511,0.015773105,0.027254619,-0.055261534,0.2295566},
{0.10900343,0.11795701,0.045758173,0.30009323,-0.4220963,-0.16144122,0.058228638,-0.013787564,0.084364645,-0.2122775,-0.08058803,-0.015605805,-0.054354638,-0.1667459,0.07309551,0.18268593,0.1384075,0.16431926,-0.003569789,-0.0031724737,0.22694999,-0.018085476,0.06989666,0.36964503,-0.19674723,-0.017419439,0.26724038,-0.25393525,0.25351128,-0.11898982,0.17448902,0.11802617,0.027495077,-0.111538544,-0.018876117,-0.12632433,0.059701838,0.03728492,-0.12584747,0.038057335,0.2314821,0.10987574,-0.22217898,0.17870404,0.10894131,-0.13593966,-0.13703296,0.12664399,0.16394737,0.15736398,0.09641502,0.3225454,-0.089790545,0.08114404,0.122173674,-0.12218204,0.08252011,-0.15252793,-0.13628007,0.17276883,0.15746549,0.103360415,-0.12513514,-0.0022134099},
{-0.08372279,-0.1406354,0.0047305445,-0.20385544,0.18405288,-0.17686044,-0.051914852,-0.037958235,-0.018957011,0.094152965,-0.14304441,0.19854143,-0.06164847,0.06778776,0.029787311,-0.40326843,0.060749605,0.25375953,-0.18546651,0.048747648,-0.16066396,-0.041876964,0.18382901,-0.34599337,-0.004443504,0.19486052,0.14039585,0.22047049,-0.073073186,0.21968839,-0.31345874,-0.15036906,-0.2915471,-0.052799746,-0.24125153,-0.12222166,-0.019838627,0.17349951,0.33919254,0.027698558,-0.19164781,0.16621429,-0.08138467,0.10299205,-0.15684004,0.34295976,-0.04187424,0.16403429,0.037741236,0.13824806,-0.14847702,0.0043967753,0.0069683916,-0.012328166,-0.05407767,-0.07302653,0.1232673,0.12163973,0.22925502,-0.027033415,0.17246105,-0.3631701,0.023690714,0.308242},
{0.14838922,-0.1544212,-0.038143534,0.22695802,-0.1564335,-0.34208134,-0.03584332,-0.060245123,0.014148319,0.09122368,-0.28254825,0.10591691,-0.2279629,0.09407807,0.062676094,-0.0016262416,-0.2964928,-0.024827495,-0.15785453,-0.24470347,-0.121328354,0.26172933,0.10747468,-0.2649395,0.17181414,0.07744235,0.13593079,-0.06303899,0.38279825,-0.12535648,-0.091401026,-0.2090829,0.1570114,-0.04344255,-0.035232075,-0.06915082,0.12570325,0.15635064,0.069122955,0.06548255,0.087882265,0.14944741,0.22663541,-0.35803282,-0.23288725,-0.19641131,-0.20367318,-0.029613093,0.3185416,-0.01025255,0.17323804,0.039036136,-0.012103722,-0.021720769,0.22131273,0.033397634,-0.21936156,0.14950773,0.0036254239,0.12533352,0.050577383,0.097264916,-0.19685525,-0.36497706},
{0.38494024,0.10310939,-0.13260585,-0.1363597,0.019187316,0.02695448,-0.119032115,0.05916606,0.18959565,-0.009491784,0.05035821,-0.04673824,0.04538552,0.05347688,-0.31830004,0.34691238,0.20950592,0.017444951,-0.36244246,0.12644197,-0.17021334,-0.17207813,-0.10973975,-0.21392833,0.31908473,0.09646128,-0.15324838,0.38057727,-0.03288876,-0.11930792,-0.24794947,-0.3130136,0.04033657,0.12298356,-0.11960426,0.13594507,-0.18713121,0.20644061,-0.0027432092,-0.0073330593,-0.01860088,-0.41942614,0.2759205,0.054794416,0.20720866,-0.12813558,0.39406496,-0.25167695,0.013214918,-0.41488725,-0.021951174,0.1539801,-0.044250187,0.21513295,-0.024681566,0.10514031,0.106987484,-0.34850296,-0.053469397,-0.060550563,0.082771614,-0.07253845,0.025004778,-0.092445955},
{-0.16814098,0.049312323,0.10197574,-0.2910625,0.39609498,0.020660518,0.060771465,0.13657923,-0.24065045,-0.06418092,-0.03559489,0.041237496,-0.40074566,-0.009061898,0.03244562,-0.23841631,0.40412736,0.21687722,0.05634317,-0.09039408,0.21884674,0.028855775,-0.36344698,-0.04496238,-0.28589866,0.21346496,0.2854797,0.19402194,0.24271832,0.2599116,-0.14795731,-0.1816585,0.027469266,-0.33449996,0.23985013,0.00040303633,0.072315894,-0.16845544,-0.050030615,-0.12391395,-0.09141005,-0.24579963,0.17580855,0.08218888,0.17778488,-0.022207202,0.44248712,-0.278011,-0.40455383,0.08600447,0.09995734,0.049687885,0.16434856,0.3266775,-0.14891048,-0.099538796,-0.14481696,-0.06725167,0.36214837,-0.11740362,0.22680365,0.084764555,0.019864976,-0.45232272},
{0.05010201,0.15598045,-0.25370973,-0.21379876,-0.19519067,0.2656309,-0.022860583,-0.08685965,0.29401052,0.12587154,0.024135279,-0.026297405,0.04005205,-0.053605862,0.16137211,0.30111742,0.065307856,-0.047639288,0.33126524,-0.112232745,0.16017923,0.087057546,0.119330645,-0.17090458,0.12966663,-0.25029176,-0.014294371,-0.02150065,0.34431124,-0.055097647,-0.13878547,-0.21520425,0.14988095,-0.04318544,-0.051547762,-0.28750652,0.3212748,0.13821033,-0.008048772,0.34143507,0.37244484,-0.020813785,-0.27219144,-0.12801588,-0.44215167,0.06602371,-0.1145297,0.17462401,-0.1513829,-0.25326127,0.29305723,0.023957679,0.2537722,0.102238595,0.023741001,0.19370648,-0.09008677,-0.14568205,0.04991412,0.04150908,-0.22874258,-0.17453608,-0.018542938,-0.016912144},
{0.23161449,0.24682003,0.2820927,0.11900823,0.115996055,-0.02350134,0.17150189,0.07018899,-0.13068861,0.083602466,0.007709506,-0.019012813,0.1184435,0.2057704,-0.18188071,-0.06494517,-0.12174565,-0.08437749,-0.025484012,0.16561146,0.014770068,0.12389562,0.033033755,0.17485823,-0.21237327,-0.06788962,-0.020596141,0.26445568,-0.17627631,0.109382756,0.113321215,0.06909621,-0.021489589,0.11436818,-0.25060382,0.3557271,-0.363244,0.11065815,-0.17996018,0.04378649,0.037466455,-0.20484243,-0.12580988,0.16389465,0.15590481,0.100251995,0.016001618,-0.26659948,-0.13089612,0.09100678,-0.0038832144,-0.064405836,0.0771225,0.1850425,0.074094124,-0.11956517,-0.11290299,0.18358324,-0.24219516,0.07868008,-0.145639,-0.021322455,0.2681533,-0.18451789},
{-0.006423191,0.16274792,0.048718337,-0.3100618,-0.030808948,-0.059890993,0.08589801,0.09418067,-0.008313994,0.025025504,3.7822578e-05,0.07117007,0.0015967066,-0.033170488,-0.05934231,0.019794114,0.1678683,-0.042710572,-0.1302175,0.013524849,-0.22038904,-0.049858935,-0.12270655,-0.12935603,0.19058181,0.043809593,0.22151816,0.24299893,0.15459341,0.24569708,-0.13249978,-0.17015414,-0.0029151596,0.2826434,0.057246592,-0.028819216,0.089499205,-0.04633808,-0.052196544,-0.18409091,-0.3224749,0.21878308,-0.1878678,0.12602471,-0.20638871,0.090790056,0.11320049,-0.007848405,0.0061950996,0.032502502,-0.15991753,-0.08953402,-0.016525384,-0.099997446,-0.24170366,0.2676053,-0.20195004,-0.028717022,0.028556362,0.05824429,-0.16306944,0.111354634,-0.088290885,0.25459954},
{-0.026718821,0.14915687,-0.21570466,-0.15241694,0.04243036,0.08287184,-0.029356182,-0.01385965,0.17786281,0.051019404,-0.049335532,-0.34416604,-0.16983885,0.09910942,-0.29252693,-0.061464414,0.20325251,-0.050542384,0.10225606,-0.008858119,0.17405725,0.039640166,0.23278904,-0.23235296,-0.019912172,-0.092564985,-0.21017995,0.13569196,0.15212436,0.020453632,-0.2521593,0.15355703,0.17414226,-0.023544993,0.29368424,0.122493334,-0.18900391,-0.110111855,-0.18593867,-0.07180725,-0.028619984,0.08883688,-0.06664382,-0.13105491,0.1697133,0.040855695,0.07567184,0.22245966,-0.10661241,0.112289354,0.16561593,0.007681782,0.18455252,-0.16736142,-0.13631149,0.009815368,-0.2845498,-0.20693606,0.14871876,0.25939587,0.14354599,0.13225228,-0.07304092,0.1079354},
{-0.17835793,-0.016263215,-0.010950004,-0.03125552,-0.14867231,-0.16244172,0.14436959,-0.052695572,0.021098148,0.06768924,0.06791202,-0.060340084,0.059288234,-0.07055788,0.18328363,-0.3051302,0.038380515,0.27872005,-0.024118057,-0.08767568,-0.25012237,-0.02855569,-0.29986542,0.15767427,-0.04818069,0.3286057,-0.15526305,-0.060169652,0.021673456,0.044054836,-0.0455724,-0.025868725,0.2039046,0.0070642657,-0.10384232,0.13666685,-0.17527045,0.0059963265,-0.18602532,-0.19483212,-0.035773054,0.28291747,-0.09354657,0.27960715,-0.26062435,0.039505184,-0.025714107,0.0204395,0.1497002,0.048472505,-0.22088903,0.18739256,-0.07283032,0.06758424,0.17883594,0.038019747,-0.034232877,-0.06815227,-0.048285935,-0.058358036,0.13083148,0.05742464,-0.21437036,-0.21995379},
{0.11614244,-0.19830997,-0.006367424,-0.18666199,-0.086801484,0.06640231,-0.33536103,0.012251457,-0.13505556,0.18278545,-0.07071173,0.06467629,-0.11639779,0.069928564,-0.0045348546,0.17955661,-0.34942067,0.22974972,-0.31459445,-0.2035023,0.2009908,0.0033171047,-0.041138813,-0.019758048,0.08676829,0.15394287,0.19704694,-0.10061808,-0.13574027,-0.24079315,0.24103187,-0.22458875,0.2144958,0.016922725,-0.28819197,0.04201072,0.3249892,-0.06352444,0.14477442,-0.09389412,-0.012040766,0.015491276,0.26090115,-0.31220573,0.12577929,-0.22574493,-0.057371724,0.15523116,0.008336528,-0.15778935,-0.068925865,0.08629726,0.15353067,0.12663502,-0.14142981,0.20906477,-0.085160606,-0.2607015,-0.15321088,0.11816779,-0.27630788,0.0042811465,-0.27457702,0.272277},
{0.24649696,-0.39708135,0.030556154,-0.08520984,0.14822891,-0.23874314,0.39698792,0.0140283415,0.013537554,-0.13863483,0.28112334,-0.12769158,-0.22327659,-0.36167017,-0.12141027,-0.068438485,0.30210575,-0.23753424,-0.18704106,0.14629123,0.48443094,-0.502604,-0.081270896,-0.11890443,0.18887891,0.3044583,0.23715533,-0.030984942,0.11772117,0.07602493,-0.32938626,-0.23838691,-0.28350237,-0.115678124,0.18355477,0.15425259,0.15042391,-0.002376628,-0.12370536,-0.083037145,0.17712198,-0.1731622,-0.1269415,0.35007194,0.2880594,-0.0992739,0.060164683,-0.08225838,0.16147755,-0.05639191,-0.087236255,-0.033626158,-0.34200072,-0.20006286,0.48655236,-0.33145162,0.14729677,0.0720121,0.26420027,0.3220865,0.17785023,-0.0056878496,0.36673546,0.12621698},
{0.15620203,-0.21196084,-0.21060713,0.24726816,-0.012073903,0.059875,0.45244628,0.14184631,-0.17690866,0.104808055,-0.12635057,-0.2556391,-0.068872735,-0.099933706,0.13096447,0.38324305,0.0051839333,0.12647168,-0.20480776,-0.207555,-0.03171584,0.22044942,-0.21636799,-0.05555088,0.112880416,-0.39443555,-0.17928723,-0.31302378,0.3162964,-0.215136,0.11214584,-0.08403939,-0.1912444,-0.31416512,0.37453753,0.3898978,0.21971138,0.1557474,-0.032670833,0.16860312,0.21430683,0.020668443,-0.33552167,-0.17329995,0.076919466,-0.15569863,0.17644927,0.05427905,-0.48071438,-0.24059406,0.33449298,-0.28637633,0.21276914,0.14583659,0.20819597,0.27654025,0.04244044,-0.2527823,0.46969745,0.16184492,0.33154285,0.011242871,0.22653064,-0.17900519},
{-0.25091013,0.04089128,-0.1947233,-0.029143523,-0.20671755,-0.071449555,-0.04363488,0.22624494,0.1151719,0.10176417,0.12923372,0.34394592,0.08634957,-0.09458491,0.23979409,0.038610782,0.22109355,-0.09160616,0.044604193,0.16689652,0.13044415,0.15839459,0.12763007,-0.10457831,-0.11031493,-0.15148431,-0.31770453,0.07045821,0.088345915,0.05724435,0.01290322,0.19215915,0.11449143,-0.1604171,0.2883194,-0.21700981,-0.18679434,-0.25721252,0.016687669,0.020428425,-0.043163564,0.092143185,-0.16938522,-0.11464001,0.06696982,0.26856944,0.13069116,0.1484263,-0.26847643,-0.00396116,-0.12535328,-0.04162015,-0.11553583,-0.1431001,0.18114044,-0.021669274,0.15289141,-0.078322314,-0.04937506,0.03654071,0.20225295,0.033173066,-0.111124635,0.14138122},
{-0.0841615,-0.00571269,0.059041798,-0.2944636,0.28660312,0.060454696,-0.058362514,-0.008002851,0.0524262,0.011459051,-0.058249272,-0.17325953,-0.014824142,0.047587357,0.0059617166,0.15388191,0.19342396,-0.028938312,-0.01873784,0.43186128,0.092452295,0.27021748,-0.1673002,0.24126776,0.02589901,-0.35884318,-0.08286274,-0.08097718,-0.050940227,-0.101456165,-0.05844927,0.05458154,0.1830479,0.35283607,0.06254784,-0.0678286,0.079620115,-0.110286795,-0.006730919,0.12722544,-0.13977525,-0.14253823,0.08218796,-0.067500636,0.32244274,-0.1875868,-0.11403946,-0.08333661,-0.10611881,0.17074229,0.1951374,0.18148106,-0.12587908,-0.103097856,-0.097307645,0.116818264,-0.019334208,-0.07157436,0.058513205,-0.10026076,0.14753918,0.034157634,0.0316469,0.036235016},
{0.28756213,-0.2774218,0.11525254,0.29158086,0.32704014,-0.03292617,0.24647397,0.14343415,0.05537462,0.022995586,0.02606187,-0.22428319,0.016694544,0.08065094,-0.2216875,-0.036070462,-0.12929676,0.17692776,-0.16202764,0.03489737,-0.23501652,0.031194655,-0.1106368,-0.072699286,-0.13062833,0.11294738,0.34121886,0.00021411022,-0.26332217,0.0045715626,-0.012090103,-0.15764119,-0.10757366,-0.13706046,0.1655778,-0.2370763,0.1146664,0.12936904,-0.009760408,0.06923046,0.17362148,0.0049744584,0.31960124,0.5002629,-0.34682387,0.15248884,-0.05760108,0.14039604,-0.06368677,-0.05510023,0.012300481,0.11085343,-0.13771874,0.17459479,0.02077324,0.20796229,-0.10092373,0.046798643,0.004868979,-0.084560126,-0.043726757,-0.11050402,0.0067897504,0.017117677},
{-0.024016684,-0.11063652,0.28233907,0.0864356,-0.15050037,0.04756747,0.28758496,-0.17793362,0.10738344,-0.0745724,-0.29605073,0.03281323,-0.09556198,-0.022791637,-0.22778481,-0.32579455,0.038428135,-0.034004133,-0.08687147,-0.101571724,-0.06765932,-0.3411865,-0.05400826,0.06042423,0.25016615,-0.28104147,0.051179796,0.10287345,-0.013439532,-0.112106055,0.11692942,0.025943467,-0.04075272,-0.115925245,0.09962044,-0.00046060196,-0.1401399,0.23801796,-0.023056617,0.0018046398,0.2878856,-0.22114566,-0.14664741,-0.10181562,-0.28842145,0.17511012,0.009996945,-0.044700965,-0.10856525,0.017751502,0.11565822,0.21637924,-0.004712065,0.04950239,-0.1418389,-0.110166214,0.108166896,-0.15717763,-0.026718304,-0.2536741,0.119774655,-0.14416876,0.08800862,0.046375614},
{-0.047969304,-0.1605347,0.13249543,0.04005718,-0.13564971,-0.16904402,-0.02415425,-0.22994146,-0.050032403,0.10363708,-0.22810082,-0.079043664,0.032698084,0.26653904,0.1327329,0.11158311,0.23443055,0.06287988,-0.047241054,-0.13117673,0.3016628,-0.08885732,-0.110735916,0.03619334,-0.09630942,0.09771994,-0.23368181,0.15794665,-0.22871567,0.25089443,0.0007946143,-0.19595087,0.28889695,0.09441122,0.04093536,0.0862076,-0.11847009,-0.0022949728,0.10679007,0.09369531,0.09954204,0.14923842,-0.044007048,0.123984285,-0.13064162,-0.23066273,0.17477041,-0.19326234,0.04177943,-0.04531086,-0.08865222,0.05487973,-0.0759042,-0.07058886,0.113885,-0.09315478,-0.11648417,-0.2783511,-0.021643646,-0.11195429,-0.022274986,-0.13883643,-0.016707746,0.27361646},
{-0.0092178825,0.00029624644,0.19185393,-0.1823372,-0.10630512,-0.10077794,-0.39173457,0.25124875,-0.09724314,0.32443225,-0.1589259,0.19734867,0.3156297,0.1125726,0.05015051,0.21967477,0.02068459,-0.094713956,-0.027545584,-0.28828284,-0.19248986,-0.10902347,0.13392448,-0.16674133,0.24305256,-0.25375596,0.2265298,0.09029876,-0.09867942,-0.013543831,-0.3345489,-0.09197963,0.25472963,-0.17804863,0.076119944,0.08406736,0.110277556,0.3708545,0.12798548,-0.24520542,-0.060409244,-0.24664484,0.121539116,-0.090428196,0.17204727,-0.33646196,0.29860368,0.099587716,0.04782601,0.062909946,-0.08944057,-0.23485368,0.01157102,0.18190521,-0.1763564,-0.052490387,-0.07488177,0.004753366,0.026271429,0.113222666,0.28134733,0.11726136,0.06477186,-0.09215356},
{-0.23212181,-0.45521444,-0.22732249,-0.10822011,0.17180039,-0.14774612,-0.0325452,-0.13984476,0.2660354,-0.12904857,-0.030052554,-0.30121586,-0.15417464,-0.10083345,-0.14633939,0.1769389,0.15185976,-0.10338694,-0.09258608,-0.46702972,-0.057898577,-0.1310263,0.11214405,0.23722006,0.29085428,-0.12752606,0.020726858,-0.056785088,-0.25324914,-0.05674199,-0.008606926,-0.2554683,0.12234028,0.3401947,0.33571583,-0.03836658,-0.31352758,-0.034854647,-0.3590091,-0.15306462,-0.12616962,-0.110979326,0.26850456,0.056130532,0.21420477,-0.1600171,-0.010894146,-0.3415554,-0.09169293,0.5915451,0.20803444,-0.34449154,0.3168344,-0.27256513,0.30627105,0.053119108,0.26347008,0.21854421,0.1323683,0.06786133,0.07972854,-0.005296774,0.060855705,-0.01084129},
{0.03571253,0.026940381,0.08373827,-0.21203408,-0.119797155,0.409387,-0.18248722,0.034833394,0.20966142,-0.38958752,0.02082977,-0.39807856,0.09655133,-0.14420544,-0.21290725,0.18044159,0.29251057,-0.3465819,-0.27607223,-0.11097402,0.02514089,0.10687706,-0.06859616,0.24975583,-0.050750032,0.003264986,0.08578481,-0.056256946,-0.08411969,-0.08214604,0.17536384,0.12149019,0.46418414,0.12603866,-0.0113375755,-0.065115795,-0.25298706,-0.15506324,-0.08967779,0.028748466,0.06861319,0.20118281,-0.037303727,0.13714008,0.15270609,0.1175705,-0.11323126,-0.09402425,-0.30381784,0.24348839,0.26296785,0.29339048,0.04487278,-0.32648978,-0.046896387,0.20842904,0.33219817,-0.2624797,-0.082060784,0.26334256,-0.3034607,-0.19913465,0.13293786,0.22639795},
{0.18422998,-0.101337716,-0.07314432,-0.13621594,-0.23371929,0.23797284,0.05239674,0.16379838,0.14825316,0.2710779,-0.035564575,0.40751025,-0.033600222,0.22039013,-0.1637448,-0.39826563,-0.14029658,-0.4050145,-0.29681078,0.22738527,-0.035385974,0.046491347,0.23292255,-0.33255988,0.02898636,0.22341144,-0.03141503,-0.1808774,-0.16850808,0.054921746,0.11082247,0.017697336,-0.07669143,0.12490461,0.19596338,0.04415793,0.030589385,0.1943389,0.1797347,-0.04808255,-0.37975192,0.19257446,-0.07307803,0.13921122,0.07952511,0.12114792,0.3310791,0.33997723,0.09033651,0.026882872,-0.07592799,-0.35456905,0.018905822,0.15600899,-0.02139699,-0.0023051673,-0.06070453,0.14441021,0.30576685,0.20767657,0.028856948,0.21866933,0.17586133,-0.27258447},
{-0.3329229,-0.13834259,0.047733136,0.07351726,-0.006830872,-0.028809,0.05398165,0.08724903,0.28162646,-0.058383513,-0.055854402,-0.1549281,-0.118744805,0.27078155,-0.19021635,-0.16249225,-0.008809173,-0.00092410337,0.02504349,-0.09188205,0.23896469,-0.02338829,0.06682392,0.01705931,-0.12223927,0.2562115,-0.15256879,0.07917483,-0.014573165,0.054504015,0.14106332,-0.114558585,0.09948316,-0.22942129,-0.1540742,0.03433173,0.16317627,0.05764829,-0.048192743,-0.07560434,-0.10487386,0.1593849,-0.1179283,-0.045241278,0.07002138,-0.5863634,-0.065289855,0.04612038,-0.23933601,-0.24291654,-0.012294843,-0.0014385361,0.00082586816,-0.14297019,0.17440847,0.3124495,-0.042656023,0.16744262,-0.05396494,-0.2535665,-0.22584851,-0.06705464,-0.09274271,-0.009324864},
{-0.32582343,0.21957602,-0.21323884,-0.07101281,-0.071430184,0.15469253,-0.47581264,-0.052507944,0.28581715,0.1605278,-0.064975016,-0.0013281703,0.08461767,-0.011666033,0.030125204,0.13721928,-0.08485283,0.23402335,0.1740822,0.063738786,0.03371508,0.021155944,0.18262158,-0.081974916,0.23794676,-0.20206949,-0.29860082,-0.07615466,0.3713201,-0.3706524,-0.14792892,-0.046961505,0.21769635,0.011974427,-0.17771411,-0.1458758,0.295007,-0.015120362,-0.055478603,0.02979598,0.33953074,0.15094723,0.15664227,0.1343551,0.029184183,-0.26489243,0.24776578,0.04664155,-0.14620082,-0.23255849,0.03418666,-0.08334626,0.07869018,0.1157452,-0.09903329,-0.021984907,-0.21310768,-0.11390477,0.17054473,-0.19972642,0.077272795,0.11516854,0.0534967,0.02497277},
{0.07371822,0.106331505,-0.09029738,0.40472883,0.014042107,0.27679175,0.0035395548,-0.19041513,0.25143856,-0.17603685,0.019974815,-0.061396353,0.017581942,-0.09803384,-0.01633377,-0.32979,0.09598596,0.165433,0.15446903,-0.16891046,0.11693629,0.19939302,-0.034107007,-0.07672428,-0.29245853,-0.027183363,0.14229074,-0.10558393,-0.048021954,-0.1667813,0.11849881,-0.11805209,0.140703,-0.053760633,-0.072798245,-0.01283212,0.12822081,0.09993428,0.100372456,-0.0031529777,0.176771,-0.033399638,0.25607362,0.050823797,-0.021569394,-0.21873423,0.0420274,-0.0793481,0.046765488,-0.19640484,0.08115823,0.024687523,-0.41740572,-0.08993138,0.017756544,-0.21182086,-0.122566804,-0.13961838,0.11534129,0.028141053,0.192742,-0.16421358,0.083507255,0.004898298},
{0.36245155,0.12807998,0.18513091,0.050304223,0.25359008,-0.29154876,0.06906978,0.1006842,-0.22330056,-0.122218706,-0.23202078,0.06315901,-0.17606817,0.15153337,-0.038226876,-0.16759792,0.10376351,-0.0120553225,0.054764166,0.068351544,-0.10455993,0.049309667,-0.21599121,-0.037417334,0.22082691,0.026582146,-0.08304837,0.25427604,-0.15328139,0.072356716,-0.053456027,0.054907694,-0.06404422,-0.2908293,0.01220043,0.15789518,0.102122225,-0.121074446,-0.21771502,0.0560533,0.10250504,-0.29614788,0.19679464,-0.025377922,0.29534236,-0.25300094,-0.06254547,-0.07777582,0.05336639,0.16162826,0.19440505,-0.01362401,-0.055521097,-0.31983024,-0.49952477,-0.22106045,0.24326421,-0.019890731,0.10492667,-0.030882759,0.1147673,0.2608031,-0.3303536,-0.14911968},
{-0.018166304,0.25732476,0.17205662,-0.05363258,-0.06344431,-0.26970717,-0.013046553,0.071352996,-0.26182604,-0.048741054,0.100989744,-0.25822142,-0.0349988,-0.06444564,-0.28154787,0.20472316,0.17492507,-0.25255886,-0.42541498,0.3030088,-0.13574441,0.27346218,0.009670118,0.13346636,0.1420703,0.17587362,0.32694632,0.14656283,0.15127438,-0.12560035,0.031073967,0.23596506,-0.12702695,-0.119339705,0.090157665,-0.04733692,0.093685724,-0.1641137,0.06655712,0.06908139,0.14814413,0.10926364,-0.17401162,0.19601,0.08712818,0.11829422,-0.039531305,-0.13355665,-0.059442643,0.35878628,-0.20411941,0.035930566,0.0760552,-0.09797429,0.06618526,-0.121630065,-0.012582799,0.17571536,0.13591082,-0.1442188,-0.35762525,-0.030612646,-0.11138896,-0.02791426},
{-0.0686374,-0.12731147,-0.111526385,-0.002238226,0.1832221,0.18609755,-0.051993534,0.16512337,0.006214513,0.042590458,-0.39955747,-0.007532764,-0.29146203,0.16257934,-0.06913414,0.22147147,-0.18275142,0.28519794,-0.11152523,-0.26105577,-0.42273948,-0.3088114,-0.006973724,-0.35873395,0.011259277,-0.057167053,-0.28176376,0.19924156,-0.18635146,0.36282438,-0.053676523,0.10602543,0.24790508,-0.1906504,-0.59700555,0.16843168,0.15346694,-0.2389675,0.65711504,0.11060924,-0.10943827,-0.1998749,0.15450594,-0.24882269,-0.34321994,-0.51494205,0.039784417,0.06531864,0.40772033,-0.356679,0.18831941,-0.058753658,0.068859115,-0.08687986,0.2806227,0.19616134,0.048019372,-0.32331288,0.42000672,0.45339942,-0.2340243,-0.29644278,-0.19017792,0.07293603},
{0.008988875,-0.1945839,-0.14238726,-0.4247643,-0.3616984,0.23105274,0.06876868,0.039109025,-0.21098107,-0.12321401,-0.06125009,0.3074962,0.5601299,0.31907728,0.1653757,-0.1430341,-0.25779614,-0.10276122,0.2384073,0.1265266,0.23092803,0.06143044,0.08483325,-0.675011,-0.006262102,-0.35946938,0.1828829,0.07991423,-0.19708952,0.0048802206,0.044093203,-0.0067620794,0.28011772,0.3922802,0.50983083,-0.32888582,-0.06483427,0.14476371,-0.17041302,0.03953672,0.004022987,0.22863132,-0.10387399,-0.08560542,-0.7189914,-0.2910658,-0.20919792,0.26527923,-0.27108014,-0.010968521,0.5944687,0.36253113,0.2709778,-0.2589498,0.17094871,0.2128508,0.049238067,0.39683512,-0.004190618,0.5226889,0.009245057,0.23402376,0.014770243,-0.10510764},
{0.053612456,0.1638619,-0.09889814,-0.013201233,-0.065652765,0.25713935,-0.09369936,0.19543128,0.008328095,0.034144476,0.3254765,0.014169663,0.19309437,-0.07097125,-0.16978088,-0.22543903,0.49735472,0.04719762,-0.20113744,0.108762726,-0.24249703,-0.11475962,-0.085954726,0.040981553,0.08924398,-0.06963691,0.1656241,0.14336105,0.0026527112,-0.3492936,0.17697726,0.2745392,-0.4298631,0.54141134,0.44808465,-0.046773653,-0.22206978,0.16722956,0.09014582,0.22382677,0.025274852,0.08561387,0.20219469,-0.2668911,0.049198866,-0.11021905,0.058465224,-0.23987609,-0.098542124,0.2171507,0.08072675,-0.11516374,-0.0898861,-0.10173545,-0.3666653,-0.022797232,-0.44752046,-0.11926898,0.5735174,-0.047660507,0.35807762,0.046539523,-0.16505112,0.012331998},
{0.0077174013,-0.16332039,0.02345532,0.23465121,0.02259249,0.19092667,0.32318562,0.16121235,-0.12056519,0.1531786,-0.22040485,-0.10561067,0.19505477,0.101147205,0.011442693,0.15584598,0.22848113,0.00789617,-0.20782831,-0.25953043,0.015606049,-0.12782209,0.19324465,0.08157835,-0.21978648,-0.3547978,-0.4331948,0.07055875,0.01342935,0.24735442,0.28261986,-0.05347645,0.24820167,-0.26948854,0.17827119,-0.10937458,0.18424962,0.0983322,0.21964437,0.2117854,0.1199606,0.20857939,0.17734364,-0.23736902,0.009495407,-0.33261997,0.030818999,-0.4856974,-0.08196221,-0.11379458,0.11051778,-0.024920337,-0.098169856,0.32213953,-0.17169575,0.06763572,0.21673197,0.003673629,0.20466048,0.22836179,-0.005315878,0.23555511,-0.07463294,0.08955255},
{0.063889496,-0.08069315,0.11341142,-0.18618001,0.10539171,0.032247953,0.1112847,-0.14957137,0.25447547,-0.18410431,0.057463475,0.017529393,0.09370082,-0.061955135,0.40687415,-0.1293774,0.09814665,0.5876802,0.24128355,-0.12520175,0.00075169565,-0.08810025,0.2908984,0.006356384,-0.04983996,-3.6023266e-06,0.2429101,0.25945812,-0.0029398035,-0.020504683,-0.09834294,-0.38290033,0.04622702,-0.19718347,-0.005293022,0.03605058,-0.10294042,-0.21739934,-0.084744975,-0.20243447,-0.1588926,0.019545246,-0.024854155,0.14915153,0.17939574,-0.030517314,0.16789812,0.10628227,-0.2277934,-0.08551615,0.1811315,-0.0018491822,-0.36321375,0.18193391,-0.04332664,0.28303277,0.027050741,-0.08226497,0.022821197,0.1919837,-0.2962365,0.070986666,-0.1569979,-0.15886258},
{-0.14729922,0.044922415,0.15392347,-0.13515972,0.38406023,0.18877536,-0.12353065,-0.025942247,-0.1742166,-0.074696146,0.087317415,-0.16898517,-0.22688943,-0.040406127,-0.031972513,-0.09673721,0.081286,0.21456672,-0.24775976,-0.15846746,-0.055544205,0.324987,0.2201847,0.0312682,-0.20295982,-0.061570276,0.09584343,-0.07890811,-0.047257476,0.32938206,0.005941849,-0.031008797,-0.0066949218,-0.10572877,-0.0953082,-0.055322357,0.066602625,-0.09420377,-0.21778017,-0.15666313,-0.20095421,0.0033415302,0.11790564,0.08645308,0.08970964,-0.3640986,-0.20958261,-0.02153226,0.10023584,0.010479526,-0.06835153,-0.01943419,-0.16370767,-0.12019446,-0.5098729,0.044311162,-0.0974339,-0.3437445,0.36573732,0.21036863,-0.0062009986,0.005417532,0.28118494,-0.00093824894},
{-0.22860345,0.109764785,-0.03467439,0.037761144,0.16530296,0.16621034,-0.08359446,-0.07623522,0.012093747,0.5204974,0.099614434,0.09148907,0.07690631,0.07530532,0.1372274,-0.26344037,0.027637767,0.42971814,-0.2398076,0.07526175,0.038467906,0.26193622,0.15890318,0.1143512,-0.1509505,-0.010966403,0.19623847,-0.038746376,-0.31809992,-0.12063158,-0.09157058,-0.29416612,-0.24287753,-0.21965598,0.5731867,-0.023375683,0.012340394,0.025438163,-0.055200536,-0.32195398,-0.07229442,-0.14571348,0.50107116,0.03729145,-0.092285894,-0.06797214,-0.1341233,-0.24074167,-0.015449598,0.20581678,0.07569375,-0.020843534,-0.11087877,-0.11732288,-0.015217803,0.0760811,0.15352698,0.21245515,-0.28756008,-0.39975443,-0.26504177,0.33505666,-0.22491728,-0.07223632},
{0.5147961,-0.19026314,0.4129808,0.11365289,-0.11011765,0.21852873,-0.1147883,-0.2581027,0.112142034,-0.18795738,0.20893331,-0.41364405,-0.4438806,-0.06476696,0.061872896,0.27914575,-0.30524552,0.4943665,-0.15143478,-0.38756192,-0.14351901,-0.27585912,0.18747689,-0.14729263,-0.14392887,-0.1614797,0.17919382,0.069258876,0.42153606,-0.07394285,-0.053359278,-0.19168139,0.02311528,-0.2558055,-0.14660382,0.68753093,0.32463175,0.21376331,0.36055028,0.32017252,-0.12534614,0.31809092,0.29950786,0.022141078,0.10297181,0.06895008,0.35757488,0.0804763,-0.23804165,-0.1746749,-0.14929113,-0.2538949,0.10430687,0.19022104,-0.061443266,-0.2790972,-0.35925457,0.07847282,0.22560868,0.0499385,0.10230248,0.1216433,0.31158483,-0.35082534},
{-0.13709657,0.26415384,0.20701104,-0.08053536,-0.16824457,0.056243293,0.4216786,-0.17452438,0.39542434,-0.44074875,-0.09664182,-0.24189065,0.2870584,-0.13655022,0.0030835697,-0.27959752,0.5286567,0.32296968,-0.45404297,-0.35739088,-0.21074538,0.18156116,0.111718774,-0.02015885,0.10858036,0.49728826,-0.16930485,0.40842745,-0.12671593,-0.07580255,-0.1810259,0.22176369,-0.46746328,-0.17802061,-0.29990506,-0.23701298,-0.06112237,0.3760935,-0.23982859,-0.022912089,-0.16293563,0.18534297,-0.21472606,0.42622972,-0.190178,-0.36936763,0.12752311,-0.37790132,0.17246883,0.7029264,-0.35522586,-0.080416664,-0.32689136,0.06221316,-0.24593145,0.33103874,-0.324357,0.3197506,-0.01793512,0.18946303,-0.16857822,0.120371014,0.039640825,0.026990686},
{0.41936347,-0.014251366,-0.18838315,0.16713001,-0.34840515,0.09293176,-0.20848571,0.36073017,0.05771634,-0.75533885,0.063382275,0.053062376,-0.13601527,-0.3670039,-0.3001463,0.5309609,0.06377926,-0.39127162,-0.53706723,-0.080606215,-0.18875079,-0.020086972,0.09861495,-0.20073178,-0.7052984,0.123516984,0.2812597,0.2778534,-0.16170493,0.06061234,0.03024394,-0.20145497,-0.36007044,-0.3249869,0.46154186,-0.18725109,-0.0412918,0.033127926,-0.010747194,0.16098207,-0.056208834,-0.12704629,-0.19506969,-0.28988764,-0.11683163,-0.13388295,0.2701092,0.5216611,-0.06661132,-0.18994088,-0.0262627,0.09069831,-0.08803427,-0.1367083,-0.0018757858,0.07412597,-0.07011722,-0.25349158,0.07607327,0.11258201,0.15165776,-0.0011669588,-0.10537585,0.020764744},
{0.26395845,0.41130316,-0.15748112,0.21044518,0.23047844,0.14982277,0.5432182,-0.11434883,0.17573996,0.11052024,0.10333853,0.06888812,0.46688762,-0.41201237,-0.119990736,0.5729157,0.058812715,-0.5130991,0.17297387,-0.03409299,0.25864267,0.07143122,-0.10181922,0.32365757,-0.058079727,0.22203374,0.11728755,-0.06519824,-0.16695136,0.1774324,0.06505103,-0.19195934,-0.3731038,0.30582735,0.5118434,-0.3325676,0.25920472,-0.37620407,0.27515015,-0.01467609,0.08871541,0.061302315,-0.1571644,0.44899362,0.3356231,-0.27835196,0.1700858,-0.3103117,-0.18724652,0.07653229,-0.27181873,0.00035665985,0.065825336,0.09034189,0.10437184,0.15913482,0.3221004,0.29789737,-0.0870205,-0.2861385,0.43371394,-0.1438299,0.29971775,-0.0769271},
{-0.12971368,0.38112745,-0.16060896,0.071415864,-0.069175966,0.031538602,-0.05569538,-0.03865241,-0.24519227,-0.20898709,-0.21957466,0.031240536,0.33893758,0.07930395,0.074844584,0.19671822,-0.07192339,-0.042483386,0.047792807,0.04468814,-0.115615755,-0.19878598,-0.42379555,0.24754995,-0.30783063,-0.0101884585,-0.13833603,-0.05605173,-0.06077424,0.11219337,0.14401679,0.029669339,0.22452912,0.13589165,-0.003707659,0.40072495,0.052051213,-0.119350486,0.21081345,0.120477006,-0.17658833,-0.14920898,-0.11554279,-0.21821119,0.2413787,-0.082361154,0.23050962,0.09743382,-0.43030602,0.089074485,-0.26399872,0.007567895,0.19763447,0.016619122,0.01800389,0.11281122,0.11800004,-0.35611898,0.036726568,0.38426846,0.21987365,-0.05434407,0.1366446,-0.032442193},
{-0.31029645,0.06832025,-0.2306723,0.10246941,-0.4013714,0.08910616,-0.01228359,-0.26548624,-0.24542715,0.0012145297,0.014434176,0.090175785,-0.0005122834,-0.025907284,-0.25902316,0.05177171,0.027017988,-0.049427092,-0.3389233,-0.38594338,-0.37509257,0.25048566,0.4385337,0.0033008424,-0.4510028,-0.024824765,-0.07985668,0.06442234,-0.2015155,-0.036017653,-0.0136676505,0.12283588,0.12106351,0.17822438,-0.10468338,-0.030753221,0.06954472,-0.2707552,0.24733667,-0.44014385,-0.35897553,-0.19457905,-0.106189474,0.2884198,-0.37111834,0.0025694447,-0.15078758,0.23416829,0.025312796,-0.042568434,-0.31148311,-0.00084856804,0.31955165,0.17547509,0.006061088,-0.17242423,0.16351388,0.09542811,-0.009902,-0.16248176,-0.26650727,0.15250203,0.24174741,0.34074768},
{0.10261821,0.07259385,0.10761725,0.2596533,0.11860834,0.2625855,0.27103356,-0.2671906,-0.22396569,0.33184385,-0.02049062,0.21356769,0.0062070815,-0.4219301,-0.2836703,0.47550422,-0.09659653,-0.13082936,0.11706042,-0.3591849,0.18050611,-0.10678767,0.21674982,-0.3529018,-0.11654205,0.33485776,-0.13533252,-0.0041462155,0.2428795,-0.16526233,-0.25028127,0.13121013,0.14824374,0.09589015,0.49100882,-0.010742434,0.13967033,-0.23916733,0.1443214,-0.13738656,0.021456398,-0.2420093,0.25831637,0.16709732,-0.15313147,0.09361277,-0.099902995,0.0532447,-0.075983465,-0.14544244,-0.0154918395,-0.19794011,0.3456123,-0.0894601,0.122483276,0.063453056,0.22020693,-0.10161601,0.12349754,-0.13920136,-0.25603992,0.091270864,0.095789835,-0.173545},
{-0.1521244,-0.045455493,-0.17800309,-0.13756514,-0.00411065,-0.3918582,-0.120460026,0.0747188,-0.48444018,-0.14530589,0.15190919,-0.1537158,-0.36984447,0.12138536,0.31216064,-0.25206202,0.06192422,-0.19484955,0.28056824,-0.17247523,-0.0091389315,-0.06423039,0.14967616,0.29059362,0.35938722,0.25043207,0.23896356,-0.10398584,-0.16027986,-0.4143608,0.0713498,0.2465374,-0.049937315,0.10095661,0.33975512,0.40920866,0.143985,0.031288113,-0.14327513,0.14589942,-0.096312135,-0.08112449,0.13252634,-0.5807988,0.04930492,0.09685456,-0.03354286,-0.021935884,0.07211384,0.24449645,-0.020590015,-0.2817785,-0.1881311,-0.17476049,0.08689935,0.13220052,0.18386547,-0.18034267,-0.17842184,-0.10563406,-0.015658202,0.24869864,-0.16306333,-0.13126989},
{0.3826897,0.21957669,0.16059728,-0.40194646,-0.4438235,-0.0065916926,-0.24252416,-0.083057046,-0.08012182,0.07284183,-0.23156653,0.21927781,-0.057897586,0.40682572,0.008268611,-0.10130004,-0.0466421,0.025883785,-0.031741325,-0.025138581,-0.5545484,0.035978753,0.13140924,-0.11961788,0.17316416,0.060880363,-0.27117065,0.10513733,-0.30187187,0.07509867,-0.22846296,0.20954916,0.08781901,-0.22622369,0.30257222,-0.11629204,-0.07316292,0.0018244978,0.05492295,-0.16655149,0.10299081,0.08697091,-0.009194808,0.15646094,0.15970637,-0.18290387,-0.41610032,0.12214462,0.40905726,0.3671144,-0.22028463,0.15699948,-0.327132,0.08173175,-0.4407499,0.27617297,0.08030972,-0.20676962,-0.24367765,0.16983803,0.119683646,0.43804342,-0.3242305,0.30877328},
{0.6021001,-0.12249671,0.16689232,-0.4027197,-0.39408204,-0.05169283,0.34669778,-0.5565893,0.31086704,-0.30572212,0.0007347066,-0.5805029,0.28438503,0.35456693,-0.09571435,-0.106585905,-0.04762151,0.07144723,0.48134488,0.35145804,-0.0107278405,0.041413024,-0.41638628,0.00057427917,0.09443357,0.20926392,0.36860034,-0.003291982,0.051254414,0.17603506,0.03141952,-0.03905472,-0.08082466,-0.19575559,0.0630012,-0.013807725,-0.36792055,0.10165835,-0.23253016,0.12511745,-0.20990273,-0.05745066,-0.053467695,0.020386891,0.39493322,-0.21972436,0.14976312,0.04027456,-0.27113104,0.08120605,-0.3631369,-0.5305105,-0.027867643,-0.42945316,0.1336045,-0.30638665,-0.21851839,-0.53646713,0.074576594,-0.4669257,-0.108121715,-0.084052436,-0.07528187,0.12748091},
{0.048330367,0.13272932,-0.2975117,-0.07125679,0.08144602,0.107836746,-0.1065168,-0.1594727,0.20947006,-0.23507856,-0.29220122,-0.020955598,-0.22661102,0.11449916,0.5070372,0.19523595,0.41843292,-0.21782528,0.295257,0.18811667,-0.18923229,0.039084967,-0.0045549134,0.29366246,-0.10350987,-0.12499279,-0.44065785,0.35906443,0.20430145,0.18219656,-0.01843632,-0.24326822,-0.626432,0.38629285,0.0894797,-0.25681973,-0.030569907,-0.30646953,0.104444854,0.029681168,-0.17129986,0.12205927,-0.105754934,0.048032492,-0.120758645,0.5034986,0.16480221,-0.010667716,0.33254334,0.28426948,-0.089203045,0.11016884,-0.16870894,-0.47060305,0.18294753,0.022130348,0.0523732,-0.31064188,-0.041307442,-0.28280178,-0.48957503,0.13931918,-0.042490996,0.31467032},
{0.057164535,0.24529006,0.29284337,0.023514654,0.03881001,0.3575761,-0.080755755,0.027660996,-0.055222187,0.02606222,0.1860918,0.19233878,-0.18523706,-0.05071146,0.0033233957,-0.06947764,0.31546962,0.13156281,-0.1341752,0.05716301,0.28373992,-0.04458323,-0.19035572,-0.23541395,-0.023907775,0.003993733,-0.16922475,-0.23133175,-0.36331874,-0.045942314,-0.013223364,-0.24368702,-0.29902387,-0.005756823,-0.057844296,-0.14666009,0.008353288,-0.2964337,0.0846432,-0.2586935,0.2778798,0.076110326,-0.32065728,-0.07520855,0.15712433,0.03822413,-0.13995643,0.07726415,-0.052761525,0.38111705,0.07522438,-0.15654042,0.30525228,0.25407317,-0.0072401534,-0.016765898,-0.21695471,0.20437291,0.4250283,-0.046772834,-0.084453754,-0.3498511,-0.24831165,-0.106689766},
{0.07446224,0.28327554,0.08296114,0.26211935,-0.2047127,-0.21293274,-0.11122378,0.2836263,0.22793241,0.04898211,0.2597044,-0.0020335552,-0.10626287,-0.40460154,-0.15158741,-0.21726167,-0.19639719,-0.08602682,-0.0018186048,-0.06761815,0.49908283,0.101058796,0.12342439,-0.13873012,0.053955734,0.056977343,0.023669811,0.03801623,0.043530326,-0.20131378,0.15901898,-0.2642011,-0.42098224,0.3818029,-0.22274509,0.118564494,-0.21523403,-0.07568226,0.16685589,0.10214162,-0.118983336,-0.14943711,-0.09629886,-0.2388096,-0.09232598,0.13554956,-0.22722533,0.013238852,0.12055896,0.08776386,-0.19402015,-0.13557501,0.033856705,0.51799506,0.009572431,0.07661138,0.0973108,0.02804297,-0.14062189,0.04148174,-0.06548576,0.23341864,-0.25873896,0.1779854},
{0.35666123,-0.14994785,0.43783307,-0.0092185,0.20144273,0.13109784,0.120388426,0.10052359,-0.2039858,-0.100603595,0.09358737,-0.045296818,0.15724587,0.056239404,0.15943517,0.31922606,-0.074892715,-0.006160977,0.032241583,-0.27565968,0.24593486,0.22427037,0.03966162,-0.06144154,-0.189525,0.19071251,0.09448697,-0.06739354,0.31058958,0.06218814,0.11597951,0.102188066,0.14121377,0.089089744,0.31619632,0.07395208,-0.04844816,0.035922892,-0.2748582,0.28051344,0.05531728,0.16956244,-0.1269757,0.055995774,0.04404245,-0.053360693,0.08054302,0.05298796,0.11201178,0.17251492,-0.19213085,0.028419876,-0.14889385,0.12200981,0.00144094,-0.028616147,0.17826043,-0.07994409,-0.12308169,0.10256697,0.20256485,0.20477024,0.33764523,0.123674884},
{-0.0883484,-0.1384231,0.15007885,0.022477044,0.23061083,0.01134469,-0.10038841,0.014185206,-0.220485,0.33243057,0.08376482,-0.05427038,0.18596,-0.15021123,0.03162841,0.37054798,-0.166327,-0.31467226,0.18249142,0.09489794,0.34700468,0.10009147,0.13587153,0.041737232,0.06358515,0.05259669,-0.21596873,0.13201395,-0.031054774,0.18827142,-0.11329227,0.3889791,-0.013153978,-0.23762234,0.09790063,-0.040245607,0.1346334,0.0464992,0.053344,0.110100105,-0.03260568,-0.036194123,-0.17143519,-0.008160434,0.1726732,0.24439842,0.32267523,0.04456757,-0.043984972,0.1574844,0.11730581,-0.077977374,-0.0766229,-0.00038919214,-0.1238801,-0.03588139,0.026521888,-0.17819951,0.29252046,-0.3596441,-0.04850745,-0.1309956,0.070701875,-0.22445042},
{0.04234899,-0.053624548,0.07816577,-0.008766569,0.15373167,0.06611812,0.10130499,0.07745084,-0.17822653,-0.12205667,-0.084014654,0.27434456,-0.071351185,-0.20157796,0.2207829,0.055160474,0.064772725,0.29110634,-0.047363885,-0.22891793,0.28404814,0.036535133,0.22182573,-0.010085079,0.08294068,-0.003938922,-0.2052743,0.02482713,-0.124837734,0.28010947,0.4705749,0.19737221,0.064943105,0.15929253,-0.00676937,-0.38641107,0.034787595,0.034796868,0.041400023,0.31732062,-0.16328494,0.070940875,0.11245655,0.12219705,-0.0066050324,-0.029514331,-0.32405,0.14823106,0.19645716,-0.11871126,-0.072778076,-0.032830544,0.1269738,0.031272687,0.054726392,0.20577447,0.23754781,-0.15483537,-0.18829627,-0.12660293,-0.21331935,-0.014608988,-0.105618216,-0.12917279},
{0.3032784,-0.24108873,0.053546038,-0.14325927,-0.106041566,-0.025346283,0.34643534,-0.09269741,0.023407588,-0.18618526,0.35097197,-0.4545147,0.24498765,0.1716224,-0.33587825,0.11534755,-0.102058135,0.032822788,0.068035476,-0.011362483,-0.2742451,-0.02937674,-0.5351383,-0.04141668,-0.18737799,0.17238513,0.031907648,-0.24045545,0.35679275,-0.018047094,-0.06990296,0.10201264,-0.0015780398,-0.017749872,0.013767808,0.19620466,-0.044914104,0.03715362,0.10315183,-0.004013786,-0.15017779,-0.27477777,0.29178423,-0.117191404,0.28478217,-0.21838954,-0.21806684,-0.05600642,-0.14047547,0.29659566,0.1390228,0.19564271,0.076795325,0.021328064,0.10629692,0.02179991,-0.14901985,-0.114615895,-0.034851283,-0.21962605,-0.018158041,-0.26381624,0.12432836,-0.23257695},
{-0.22445454,0.113790065,0.8533154,-0.03392246,-0.038302165,-0.012186843,0.010571447,0.036469504,0.11610957,-0.046593912,-0.01987418,0.117975615,0.16446158,0.025439968,0.08765499,-0.16017161,0.056346927,0.28799608,0.31400812,-0.10310365,-0.016970227,0.07768638,0.4500288,-0.32454166,0.2895457,0.027937643,0.052869823,-0.12608357,-0.26251435,0.33881897,-0.04597336,0.22198766,0.32752228,-0.18726258,0.17579417,0.042476017,-0.038549196,-0.09828747,0.41138747,0.24848557,0.03972282,-0.0037343767,0.12047156,0.03490631,0.14999413,0.12623414,0.0802988,0.41798022,0.20837682,0.43215895,0.028676268,-0.13366099,-0.06985223,-0.06566367,-0.35824254,-0.11842394,-0.32040584,0.009578165,0.19425647,0.101779155,-0.7530448,0.06265215,0.15110582,-0.06955236},
{-0.42904645,0.4022894,0.09378263,0.10273609,-0.07450584,-0.050598267,0.059301272,0.38999382,0.06077912,-0.4252307,-0.23306477,0.09388769,-0.42542374,-0.07562713,-0.17188433,0.07472378,0.017887572,0.3306644,0.0005418401,-0.0788218,-0.40976247,-0.10530874,-0.19633064,0.13479581,0.052024834,-0.098883584,-0.1604016,0.01257868,0.28784233,-0.09878076,0.1983633,0.26009628,-0.09540986,-0.035335775,-0.14603135,-0.29153022,0.097820885,-0.46280402,0.16110691,0.64021415,0.079693556,-0.23782137,-0.34757763,-0.10237711,0.1556686,0.107770115,-0.13302858,0.28181213,0.21399188,-0.2364197,0.3235417,0.3876207,-0.05655996,0.35184368,-0.22894017,0.15732637,0.19015482,-0.2658956,0.17780888,0.3255471,0.34631816,0.18807775,0.2506435,0.084321454},
{0.011356101,0.051146746,0.077977635,-0.065097734,-0.27921137,0.07682352,-0.0647088,0.20518029,-0.017775787,0.19275603,-0.26542485,-0.07376373,0.013354527,0.09171352,0.48691848,-0.34039378,0.12861453,-0.13644497,0.06833857,0.36382014,-0.2844011,0.16020381,0.11621206,-0.1783375,0.13047329,0.233791,0.0005061879,-0.11991264,0.2233641,-0.07476005,-0.025350995,0.05172677,-0.29599875,-0.07140978,-0.030290289,-0.36124232,0.29628485,-0.09774273,-0.20639512,-0.09854428,-0.0026354576,0.0031705184,-0.19204934,-0.31456336,-0.07409339,-0.037444517,-0.18271565,-0.22394712,-0.1472137,-0.31472623,0.088992685,-0.29283506,-0.3232175,-0.19849077,0.25964287,0.30746487,0.34591183,0.03678108,-0.006266797,-0.3283692,0.008541176,-0.025759706,0.021636026,-0.13343842},
{0.3022046,-0.013705859,0.07647174,0.19268782,0.034323204,-0.15730418,-0.078862175,-0.03531582,0.016815098,0.31268188,0.3213798,0.11218158,0.022683427,0.2040999,-0.0038754167,-0.08187355,0.02018385,-0.14033288,0.21969473,-0.111672744,0.17399307,0.19126101,0.012993174,0.100205526,-0.03172395,-0.23735125,-0.1575511,-0.14406966,0.14278229,-0.0017325027,-0.12505111,-0.031475775,-0.05232815,-0.09780876,0.19733153,-0.106946096,-0.17634882,-0.012593633,-0.12047723,-0.07276512,0.07685046,-0.19110614,-0.08615901,-0.24789031,0.08400706,-0.19522192,0.21452242,-0.098847724,-0.06095475,-0.3162498,0.07288069,-0.18525386,-0.095163636,0.29625037,0.027232861,0.28074697,-0.31948212,-0.14505674,-0.1430832,-0.024986219,-0.06799275,-0.13770142,0.008082097,0.20880632},
{0.22731659,-0.121433735,-0.049540635,-0.13997506,0.1730152,-0.041962713,-0.089781225,0.297941,0.14388217,-0.18451788,-0.07056667,0.13174602,-0.12810062,0.24946395,0.029483108,-0.020387454,-0.30063206,-0.12794703,0.013919926,-0.14578684,0.1390215,-0.12938094,0.05831523,-0.21361011,0.1159696,-0.052572794,-0.047413807,0.14159656,-0.080749705,0.0013975657,-0.124599986,0.16776586,-0.12777647,0.18268605,-0.10218081,-0.08574921,-0.06139147,-0.062754676,-0.110112965,0.044228166,-0.04585426,-0.023300579,-0.03296372,0.009297635,-0.20633022,-0.28936866,-0.17574635,-0.2182084,-0.10858991,-0.03741216,0.10335494,0.11587918,0.025537247,0.20705464,0.1858146,0.21354431,-0.31577668,-0.13954367,0.02188917,-0.05652275,0.01996442,0.117307775,-0.05685189,-0.05752373},
{-0.05129836,0.1287198,0.06000771,0.41306296,-0.1427703,-0.094664335,0.28496167,0.22723536,0.072590195,-0.3334475,0.3203218,0.40893286,-0.049767707,0.11435358,-0.106528975,0.071797684,0.017259747,-0.010756659,-0.21259871,-0.017220553,-0.0038903693,0.24352983,0.23581915,-0.119936086,-0.24850908,-0.13794291,0.043848436,-0.12210358,0.0039628865,-0.15656573,-0.27798524,-0.046986353,-0.08018125,-0.18969002,-0.07148399,-0.0853911,0.08163379,0.17116453,-0.103688315,-0.21142416,-0.1466032,0.16787623,0.057659693,-0.19240816,-0.0035142095,-0.07911923,0.011452115,-0.12763922,-0.20678931,0.014745788,-0.10380571,0.32580885,-0.19491474,0.23460664,-0.051090773,-0.18327592,-0.10339255,-0.11069347,0.0036600244,-0.36652157,-0.14164244,0.23254131,0.1144232,0.022061447},
{-0.26216555,0.0227584,-0.082387865,0.18281175,-0.19469193,-0.18543221,-0.2206902,-0.06039188,-0.11711907,-0.039995234,-0.0024126726,-0.08890162,-0.103131495,-0.1869455,0.06450544,0.0701084,-0.17705199,-0.13864304,-0.014527385,-0.030064631,-0.13785106,-0.054562386,-0.08934862,0.1520223,-0.13742022,0.07682052,0.024624148,-0.18185176,0.03251456,-0.09350425,0.09355004,-0.13832489,0.06249175,-0.09036738,-0.27535886,0.07599862,-0.12975857,-0.1089647,-0.011088561,-0.19707045,0.13305081,0.20488887,-0.27086663,0.09396755,-0.116896816,-0.22648406,0.19611843,-0.11423173,0.0961766,-0.028523775,-0.1277975,0.2768185,0.053868115,-0.16349906,-0.2887883,-0.14331748,0.18302162,-0.11975945,0.13511704,0.2067112,-0.04976596,-0.023970468,-0.12438579,-0.08421777},
{0.13507405,0.046753336,-0.1584136,0.045954097,0.19877204,-0.27646416,-0.10119883,-0.28312996,0.119719185,0.017247073,0.0656897,-0.077696435,-0.0011012452,0.23710123,0.11624757,0.15508623,-0.044241644,-0.022528972,-0.12265001,0.05684495,-0.05490837,-0.013315417,0.23420215,0.04778514,-0.0018052566,0.10043612,0.0315301,0.07157124,0.053648956,-0.15006873,0.32552788,-0.028016672,0.12650406,0.0019168772,-0.07420122,0.05054871,0.0961798,0.011347441,-0.25220463,0.087942876,0.33082688,0.094327785,0.1707927,-0.16498098,0.24493262,0.0035710724,-0.2796711,0.119398706,-0.090352565,0.061675973,-0.081412375,0.2455141,0.058578324,-0.24770862,-0.13061659,-0.024679514,-0.035344202,0.11984712,-0.013717563,0.08454595,0.20412889,-0.23001306,0.29770163,0.089654334},
{-0.36412552,-0.0077459947,0.14632165,0.118886165,0.21895735,-0.54548115,-0.044470083,-0.22412102,-0.04415842,-0.041937288,0.19358979,-0.01895579,-0.2861118,0.035873044,-0.0041654576,-0.09975682,0.23491345,-0.10868319,0.2561798,0.0770405,-0.1014353,0.034600377,0.25696105,0.021483896,0.018893925,-0.09496794,-0.21240647,0.15011118,-0.29798377,0.042672474,0.02256872,0.053470135,-0.08545346,-0.19372308,0.022920994,-0.084433526,0.09478961,-0.12494312,-0.008138109,0.13953637,-0.27920783,0.12597524,0.12321417,0.27742583,-0.10987091,-0.13587655,0.13561596,0.2609558,0.048099272,0.12927298,0.21364179,-0.08541131,-0.23277338,-0.005187468,0.106127255,-0.3998333,0.26578638,0.06686313,-0.44895494,-0.023104299,0.04290241,-0.22770034,0.34641248,-0.22668439},
{0.32158142,0.118667826,-0.09626515,0.19131348,-0.1351561,0.08172598,0.44508794,0.015644588,-0.032601923,-0.34333047,-0.39829212,0.099892795,-0.6293676,-0.32480058,0.030371308,-0.05440931,-0.19399504,0.0036795416,-0.08051492,0.38629338,0.13601603,-0.01848339,-0.05214498,-0.25598776,0.06220732,-0.039680976,0.027426152,-0.13002375,0.09513444,0.10623368,-0.035646144,-0.022809053,-0.030812928,0.16953091,0.28061342,-0.007370264,0.017491227,0.033663556,0.3008556,-0.21482928,0.2873378,0.11553312,0.019891553,0.14337505,0.1170205,-0.24232332,-0.2708716,-0.045625176,0.024805516,-0.0360429,0.14808322,-0.3742717,-0.018876355,-0.2851942,0.16271935,-0.37192228,0.23795815,0.35125506,-0.13119505,0.06469173,0.07425302,0.06991824,0.060414746,-0.04525684},
{-0.3175613,-0.20661905,-0.17901158,-0.4082842,0.0840958,-0.15993331,-0.1659927,-0.10326902,-0.0222009,-0.021299435,0.0625718,0.11927814,0.10413574,-0.17401336,-0.09527527,0.013728912,0.24057855,0.013674119,-0.02948669,0.08109142,0.11525678,0.076874994,-0.3655416,-0.06842501,-0.06657378,-0.2842529,-0.037514113,-0.09848686,0.23670767,0.0048375097,0.114910804,-0.045601625,-0.17709737,0.13165183,-0.03654625,-0.22884405,0.16473298,0.022639476,-0.3146236,0.10624916,-0.40129393,-0.16284434,-0.25573552,0.14702538,0.01117084,0.040885422,-0.10987855,0.2554464,-0.13775738,-0.38008434,-0.016386922,0.06212258,7.510428e-05,-0.1867267,-0.13475162,0.14641683,0.109297715,-0.2619919,-0.17818065,-0.12694721,-0.31635317,-0.09040593,0.29504013,0.17489585},
{-0.09399744,0.017879955,0.23015654,0.12401258,0.08380532,0.26053753,-0.03748402,0.051136345,-0.065011896,0.17869772,-0.06755522,-0.005026273,0.16852048,0.053781945,-0.071210176,0.15602797,-0.018249398,-0.16019922,0.09867159,-0.023528118,-0.013881988,0.15424396,0.18510932,-0.20992582,-0.14728612,0.036659896,-0.13963836,0.040983398,-0.1847666,0.083812416,0.068160236,-0.08287998,-0.15807576,0.07522329,0.14789195,-0.16937134,-0.00037577882,-0.093671694,-0.058777306,-0.19873357,-0.20888513,-0.19616917,-0.019985566,-0.20056665,-0.034139782,0.28049523,0.08989911,-0.026122538,0.018657062,-0.17794532,-0.2059471,0.30870056,0.19090918,0.21764104,0.016534576,-0.07004941,-0.33194697,-0.15880775,0.04919413,-0.21392931,0.0026284535,0.09085626,-0.2746806,-0.069836125},
{-0.05720405,0.25630873,-0.059577662,0.07954972,0.019876814,-0.08899397,0.13028137,-0.22830687,0.30500782,-0.008015961,-0.28722256,-0.042443436,-0.07840977,0.09775102,-0.04955766,-0.046813883,-0.018444085,-0.31444198,0.02746932,-0.029668959,-0.009461951,-0.07310474,-0.027728554,0.22759557,-0.09918566,0.103092976,0.083132386,-0.12500784,0.25530258,0.038125545,0.0020802177,0.25716716,-0.123677135,-0.06759562,0.18458036,0.19120862,-0.21023786,-0.026794398,0.11483993,-0.070419975,-0.1946178,-0.0017318529,-0.32040447,0.27693632,-0.2283817,0.13644733,-0.047905646,-0.1392665,0.15123145,0.26641354,-0.11959885,-0.090201996,-0.10541858,-0.0070507885,-0.019765848,0.08877561,0.13700171,0.15034549,-0.051614225,0.14464004,-0.07275068,-0.33160028,0.031974994,0.1400142},
{0.0471682,0.13338539,0.2511214,-0.16612186,0.27854204,0.115253925,0.12845747,0.2108276,-0.050750133,0.07527141,-0.16007292,0.124234185,-0.030076731,-0.15190865,-0.29365364,-0.18986118,0.1505081,-0.18894202,-0.042804133,-0.015477174,-0.2111568,0.08764543,-0.08386537,-0.10133673,0.17176083,0.07269028,-0.11159917,0.1011853,-0.24632676,0.066675946,0.09170432,-0.15903583,-0.07739118,0.024780802,0.19522415,0.11987451,-0.1238588,-0.16110212,-0.113621496,0.23986489,-0.040819913,-0.059780456,-0.12632361,0.05387923,-0.08416862,-0.033163197,-0.03729287,0.042364374,-0.13481492,0.08712217,0.03924663,-0.065410316,0.12947904,-0.040751196,-0.052698918,0.17678292,-0.07358476,0.20465273,-0.04294777,-0.083833806,-0.1802376,-0.22034247,0.39554,0.0072897435},
{-0.17807823,0.16546556,-0.049316637,-0.07174549,-0.28964764,0.20807101,0.11149457,0.14621854,0.17191717,-0.0027469178,0.13570754,0.112319864,0.030214142,0.06865668,0.078975074,0.275558,-0.003325931,-0.2567396,-0.12930967,-0.07841742,0.05683651,0.06915039,0.17185986,0.1530369,0.09884704,0.1631641,-0.060146432,-0.067939535,-0.0038421152,-0.037519563,0.291677,-0.07004056,0.2088308,0.046790022,-0.1497703,0.26004782,0.13829802,-0.17572081,-0.4448732,-0.057093583,0.15360166,-0.041489705,-0.0347548,0.094932444,-0.04612251,-0.029559784,0.1276049,0.08893808,0.04098419,0.067927845,0.34851453,0.066205315,0.018058004,-0.1600922,-0.090529814,0.038509104,0.107333206,0.086526945,0.033277016,0.10511043,-0.023615604,0.38642988,-0.11685156,-0.09287207},
{0.018036641,0.014610145,-0.2188052,0.03475726,0.25353616,-0.020178888,-0.48179433,-0.07977641,0.096441396,-0.13372636,0.026938863,0.027857052,-0.10063726,0.056187257,0.19324543,-0.04784908,0.24976254,0.079392746,0.010885984,0.19231367,0.111679226,-0.027085863,-0.025325727,0.23450963,-0.19256729,0.28260767,0.20284201,0.014632007,-0.07511802,0.0846822,-0.21960807,-0.3165864,0.07140675,-0.14279513,-0.07652506,-0.0354659,0.24458171,0.32007283,-0.034433566,0.16118927,0.10472929,0.14068954,0.066407755,-0.24147096,-0.10235114,0.24045186,0.087327115,0.27828422,0.08006639,0.14878598,-0.08878435,-0.10818379,-0.0145729305,-0.08820987,0.09038247,0.156785,-0.12201867,0.18051921,0.065597296,0.026729979,-0.20912339,-0.08539983,-0.384331,0.14204986},
{0.2504032,0.08278334,0.06610545,0.07791595,0.11140822,-0.04987144,0.06130082,-0.2239519,0.09439277,0.23435804,-0.12289026,-0.23790745,-0.21318148,-0.14346717,-0.11042055,-0.3214873,-0.24412808,-0.14776379,-0.041676782,0.22235839,-0.10800444,-0.00978301,0.120611355,0.05865137,-0.14363612,0.015016912,0.028292425,0.17139626,0.13708077,-0.3260777,0.30938372,0.14013852,-0.012050988,0.007144565,-0.12354621,0.362161,0.16843696,-0.13655439,0.08724352,-0.02015198,-0.28017962,0.364938,-0.1581719,0.009500332,-0.05961644,-0.24322328,0.041652054,0.011323955,0.11087479,0.08704618,0.035187144,-0.0832255,0.15923642,0.006468365,0.038948495,0.18603718,0.15577018,0.21093711,0.25957388,0.12768048,-0.15813375,-0.04905192,-0.100421436,-0.06959304},
{-0.11130927,0.06970405,-0.2660757,0.09256265,-0.0047333445,-0.032005977,0.43302628,-0.2772827,0.17264026,0.11060508,0.06724448,-0.13260813,-0.30801484,-0.34248403,0.21354239,0.04695184,0.0055017225,0.0025315671,0.26684558,0.2867335,-0.14166716,-0.07957575,-0.13546026,0.0024387464,-0.0029375658,-0.25584137,-0.03915715,-0.15132833,0.16269602,-0.17600495,0.026213376,-0.36122867,-0.11071844,-0.00576127,0.06994782,-0.23081422,0.30813584,-0.06482017,0.23059502,-0.008018613,0.22030297,0.04820367,-0.17127207,0.16922972,-0.17331524,0.11122962,-0.1061879,0.09025384,-0.024340631,0.1253283,-0.21213344,0.08028407,-0.29220107,-0.06587457,-0.29787165,-0.30627435,0.3249985,0.10351368,-0.23207092,-0.020152427,-0.14076535,-0.12905854,0.098302655,-0.122349754},
{0.34158462,-0.15959167,0.09551884,0.017036779,-0.02964206,-0.09496046,-0.08339068,0.24081655,-0.20829158,-0.022123195,-0.12707472,0.015810026,-0.31380048,0.16464822,0.24388245,0.111926176,0.10818547,-0.12607126,0.1471512,0.14866333,0.47619316,0.14342225,0.08878566,0.14881179,-0.03380869,-0.15620306,-0.02080386,-0.013249443,0.02021698,0.09938256,0.19083741,0.11221784,-0.16460726,0.29730606,-0.09819527,0.1921946,-0.36662963,0.0352325,-0.27146205,-0.019784482,-0.2844094,0.06631661,-0.06974376,0.066310674,0.30788133,0.19901042,-0.08153901,0.045817316,0.02593462,-0.07319714,-0.077936485,-0.061536882,-0.30343315,-0.17983475,0.2236867,0.15238346,-0.042135,0.0937816,0.034721076,-0.108174205,0.102755204,0.1288422,0.01440402,0.090034686},
{0.12909973,-0.17548594,-0.10639766,-0.055280693,0.040644124,-0.15971018,-0.10239073,0.07326831,0.24098359,0.185619,-0.053727422,0.09460784,0.04889109,-0.019366488,-0.035007603,-0.07281102,-0.054224104,-0.19587053,0.15018335,0.16924974,-0.14294986,-0.13381235,-0.11068114,-0.22219491,0.4353983,-0.06388531,0.04924462,-0.035653498,0.07112004,-0.0076332474,-0.07283408,0.017659094,-0.027681116,0.096823536,0.086854964,-0.3815092,-0.113011524,-0.12648903,-0.0706076,-0.14992027,-0.06160318,0.011527046,-0.025084801,-0.11049624,-0.16894174,-0.19389349,-0.06987202,0.25649253,-0.10743906,-0.20258707,-0.171,0.062213253,-0.11570704,0.112384565,0.03507117,-0.026107688,-0.31390953,-0.42075986,0.16493511,-0.077526815,0.12036469,-0.08336653,-0.24991544,0.27970427},
{0.043423574,-0.19203565,0.01302008,0.19436605,-0.07913116,-0.1352444,0.10804534,-0.14607057,-0.008998777,-0.12796874,0.23704016,-0.086390436,-0.017724749,0.20212953,-0.22072746,-0.08787292,0.010449562,0.17061394,0.006568971,0.11462954,0.023498539,-0.18637007,0.29149786,0.043926913,-0.22136101,-0.12918478,0.08639875,-0.05453053,-0.25744823,0.09965152,0.14971434,0.20881999,-0.19856972,-0.18874699,-0.3547124,-0.16217892,0.16816965,0.1060813,-0.07743328,0.32849392,0.28022042,-0.023791093,0.055248443,0.07683992,0.050342936,-0.09239324,-0.20183781,-0.26253614,0.043573696,0.012450729,0.12704778,0.011605231,0.002224697,0.07878583,0.025798649,-0.06254598,0.09169471,-0.032255698,0.21262543,0.13786441,-0.118941,-0.101025045,-0.15076774,-0.027150588},
{0.22585568,-0.016991716,0.15543886,-0.13115305,-0.13193531,-0.191051,0.020828456,-0.18722634,0.09756686,-0.06759916,-0.2949522,0.22129498,-0.06276886,-0.08258629,-0.020039806,-0.066442125,0.04538954,0.055868536,-0.2731089,-0.069500394,-0.1674241,-0.06064646,0.08028883,0.09541797,0.18081483,0.15370673,0.31628212,-0.10524953,-0.0587189,-0.108900085,0.22542451,-0.17105156,0.0056165517,0.1285176,-0.053259414,-0.2689866,0.23992492,-0.010211228,0.13327552,0.13163854,-0.17397954,-0.21085675,-0.12809694,0.17804119,-0.29643974,0.058758195,-0.104171336,-0.03921471,0.034940492,0.019729313,-0.2648364,-0.06760297,-0.07609871,-0.09897592,0.010540796,0.054116692,0.20397308,-0.0061901486,-0.14052397,-0.07442249,0.11514244,-0.1195482,0.017192794,-0.19604596},
{-0.049272012,0.012043537,0.18843529,0.4137105,0.09678722,0.116031356,0.14073125,0.02694042,0.048544664,0.16464348,-0.084645234,0.122318834,-0.0020669927,0.29240707,-0.22388174,0.1099267,-0.08428064,0.20919833,0.16591159,-0.19086316,-0.041595753,-0.27314088,-0.22341739,0.052413452,0.30664352,0.0020621957,0.07376504,-0.042441376,0.06178301,0.09954675,-0.06894419,0.22651061,0.020683598,0.103658676,-0.2541136,-0.19399118,-0.06295732,-0.11057586,0.21382822,0.072317176,0.106342606,0.025686733,0.091800734,0.06775537,0.10850483,-0.17979549,0.13741583,0.26674953,0.078505695,-0.062968336,0.022940543,0.23816061,-0.16774292,-0.05714953,-0.36675677,-0.20248331,-0.10425493,0.12257698,-0.16057767,-0.0153275635,-0.05021673,0.16300645,0.023638213,0.1976932},
{0.36018932,-0.08701629,-0.032355044,0.029317092,-0.035194173,-0.5247255,-0.12219945,0.036976162,-0.15629199,-0.14659214,-0.0887253,0.41656542,0.024704268,0.39842767,-0.033691548,-0.12503679,-0.04429817,0.13030691,0.14663751,0.10260909,-0.04853137,-0.14890522,0.06704929,0.021306265,0.1254692,0.1951398,-0.08319576,0.03764636,0.21984616,0.28303996,-0.12005346,-0.1394338,0.20561384,-0.08737646,0.22899131,0.24689841,-0.28499472,0.12926234,-0.0538633,0.20227465,-0.23399581,0.31204483,0.24665846,-0.34509814,-0.1633214,-0.11827756,-0.18719327,-0.31538296,-0.14215584,0.21889155,0.079707175,0.09229825,0.13751484,0.1974497,0.016021991,-0.09759066,0.07523772,-0.008922457,0.1555361,0.18185154,0.058804438,0.16497818,-0.12916175,0.033574916},
{-0.13998619,0.34372726,0.037679844,-0.31184798,0.010925602,-0.022928813,-0.14281997,0.08654557,0.07245141,0.1974091,-0.042316675,0.09979966,0.2188691,-0.25825298,-0.3874124,-0.18154116,-0.29218522,-0.032299094,-0.13740775,0.11239488,-0.41982093,0.13000403,-0.07987387,-0.08218879,-0.15389927,0.15341607,0.2423666,-0.2746649,-0.10829083,-0.2047698,0.057719007,-0.12310395,0.18732283,0.1603676,0.0043078535,-0.119268306,0.07757554,-0.29408735,0.18197268,-0.06808702,0.11984266,0.08359111,-0.1730688,-0.25427023,-0.08739374,0.29626596,0.059979852,0.27544844,0.06748686,0.040730026,0.026979128,0.13754994,0.30384403,0.23999885,-0.34227106,0.0637199,0.17631516,0.17444918,0.099245846,-0.056868695,-0.17491531,0.05544004,-0.15098484,0.119906224},
{-0.46992838,0.11618523,-0.040421985,-0.073960654,0.13955119,0.09082227,-0.18407667,-0.12552732,-0.19112034,0.2969497,0.37129653,0.1585751,-0.31624585,-0.32251248,-0.3727639,0.33466804,0.0072165206,-0.012613814,0.012322859,0.08046839,-0.23970726,0.22592023,0.5399799,0.36940527,0.01540089,0.31819242,-0.0672184,-0.0331476,-0.30470094,-0.20954627,0.13128711,0.20312648,0.17349058,0.1656883,-0.02751897,0.2617748,-0.094577506,-0.1567722,0.22598127,0.16002251,-0.14530349,-0.13680537,0.40715137,0.104217455,0.23208319,-0.13728467,-0.33124197,-0.027714841,-0.30148676,-0.2077023,0.110801205,0.0750545,0.030259607,0.00015468977,-0.08246323,0.07937037,0.14219865,-0.36815882,-0.021209776,-0.1107262,0.20764247,-0.19822508,-0.057356816,-0.2269294},
{0.09588203,-0.24397707,0.12603287,-0.17080405,0.308158,0.08244716,-0.18876712,0.04528556,-0.19056047,-0.29101503,-0.1530928,0.09925177,0.01833644,-0.1910457,-0.1843427,-0.18210952,-0.15460053,-0.28801298,0.17585406,-0.020829676,0.023905223,-0.1894063,-0.078845434,0.08864216,-0.08924953,-0.13075472,-0.092366844,-0.1916739,0.13345322,-0.16739577,0.06862081,0.10780896,-0.3566344,0.23171927,-0.2738688,-0.043723654,0.109309174,0.058047358,0.023193138,0.31466043,-0.11183484,0.3209149,0.082401626,-0.048593286,-0.19181183,-0.34820738,-0.047388744,-0.4132716,-0.023334363,0.040956244,0.053976025,0.011650801,-0.011348335,-0.055509586,0.07239652,0.098529674,-0.07343347,-0.0737768,0.0010077419,-0.17902912,-0.0722468,-0.039028347,0.37803647,0.0859707},
{0.18547486,0.28352103,-0.1093731,0.054305874,0.084758565,0.20166299,-0.037927333,-0.1884935,-0.002740074,0.09661962,-0.091736734,-0.113219485,-0.21559712,-0.3456756,-0.008401821,-0.039967246,-0.06360918,0.16141431,7.363378e-05,-0.0749107,0.23294267,-0.13145798,-0.16345218,-0.037005182,-0.02434467,-0.18347764,-0.014352041,0.1039987,0.38843983,-0.024629323,0.16254848,-0.021839347,0.048703,0.14333847,0.21944053,-0.18245402,-0.007735759,-0.11780446,0.10672248,-0.020553099,0.25460172,0.14204112,-0.044328254,0.02943283,0.09920933,0.1326454,-0.08419504,0.07829223,0.0923458,0.13620694,0.07452912,-0.25732785,-0.09002406,0.015303101,0.19455834,0.035749167,-0.09363834,-0.14172338,0.23592749,-0.071744524,-0.051438086,-0.05539038,0.11998398,-0.1518887},
{-0.2626539,0.2547768,-0.25096664,-0.37920478,-0.27948317,0.43642452,-0.115970865,-0.2587318,0.11723184,0.19090788,-0.07012348,0.091511786,0.24651633,-0.23765379,-0.006786681,0.2524186,-0.20505653,-0.060429048,-0.08701203,-0.11721712,0.11431848,-0.039139234,-0.16419216,0.15521257,-0.05569961,-0.05554707,-0.15666993,0.016431004,0.2131104,0.14150034,-0.1108065,-0.049561758,0.17217816,-0.06279265,-0.29221615,0.21321696,-0.10171121,-0.21394381,0.028500654,-0.041923445,0.14349002,0.1389755,-0.1344209,-0.030569391,0.23426214,0.17634659,0.20012806,-0.1938856,-0.05428034,0.15723401,-0.01900881,-0.050830442,0.12049796,-0.24454635,-0.08665906,-0.11897351,-0.21109895,-0.08173308,0.0717312,0.11689494,0.24796066,-0.075712815,0.16664213,0.3045561},
{0.15537362,0.09449141,-0.17849031,0.13323314,0.0632396,0.19137456,0.15238568,-0.19866127,-0.021939764,0.18104266,0.15035947,-0.07263291,0.21247636,0.17290528,-0.2161773,0.032300893,0.08085251,0.2654763,-0.03431737,0.220362,-0.19911698,0.089144245,-0.07488761,-0.036434826,-0.2216467,0.21532261,-0.1115455,0.0701129,0.009408802,0.1651399,-0.1653175,-0.06720266,0.06378828,0.25579578,-0.16682178,-0.16617513,0.1605028,0.10112026,0.03511219,0.053239424,0.09761358,0.18515465,-0.07599865,0.31833687,-0.046308074,0.20924774,0.031595677,0.28658795,-0.06279264,0.06998355,-0.064963594,0.32477596,-0.13706309,0.087969385,0.13838835,-0.13191396,-0.043726183,-0.160758,-0.044915248,0.1703429,-0.1241318,0.08861902,0.010583331,-0.19066422},
{0.1351933,0.1399908,-0.21517272,0.096889615,-0.1668508,-0.20404045,-0.015194646,0.0569611,-0.07728229,0.015646193,-0.10674448,0.0056233183,-0.07751732,0.3076176,-0.027978208,-0.20540237,0.17815441,0.22264011,0.2310548,0.0076025273,-0.38625106,0.11367079,-0.10297999,0.15634613,0.21699968,-0.24881428,0.057400886,-0.21550119,-0.03145266,-0.010149667,0.16486458,0.031785678,-0.081366345,0.2500838,-0.048560888,-0.11302265,0.0136058945,0.18348959,-0.07651989,0.2112587,0.18004495,0.08893816,0.07633265,0.04515012,-0.26576546,0.110790834,0.18229343,-0.21921866,-0.17152265,0.121683106,0.047778834,-0.19984856,0.13033335,0.025304375,0.115381055,-0.16304408,-0.07567706,0.06744471,-0.017225012,-0.079112425,0.08437975,-0.11654756,0.03592425,-0.21462189},
{0.046709105,-0.10968451,-0.17396377,0.39888564,0.06349455,-0.11484397,0.02447211,-0.31141707,-0.1229588,0.052504152,0.17582816,0.021884395,0.07572911,-0.022663983,0.21871173,-8.286422e-05,0.005392198,-0.28743374,0.01604515,-0.11753524,-0.07018682,0.2624552,-0.18144028,0.06641799,0.011962483,0.31468433,-0.037306987,-0.29326004,0.031356357,-0.22220989,-0.022633301,0.04412842,0.088979855,0.32991216,-0.10186119,0.31739095,0.04011338,-0.2387595,-0.20686506,0.059387427,-0.059947874,-0.06926123,-0.09106304,-0.008750761,0.037527576,0.0451362,0.028066142,-0.27550226,0.10606693,0.06562129,0.09615457,0.008941663,-0.2746058,-0.024205117,0.115190335,0.16894375,0.21770807,0.23032267,0.112435885,0.17593616,0.13244736,-0.0124125285,-0.1037257,0.32281494},
{-0.009557857,0.12126134,-0.29934525,0.070006534,0.007621133,-0.13124277,-0.3108149,0.16668253,-0.3376511,-0.12977138,0.15993306,0.28447598,-0.24941483,0.23598564,-0.007614,0.036086172,-0.15611689,-0.29426506,-0.20931113,0.31169468,0.01901529,0.10686885,0.4414507,-0.124940425,-0.37960005,0.09975327,-0.09130424,0.2526543,0.18568161,0.021150468,0.29617387,0.04956052,0.19262427,0.29521313,0.028285017,0.034080945,0.39545882,0.017254123,0.25726432,-0.45188078,0.075389706,0.13122414,0.22769345,-0.02210174,0.15270935,-0.48846743,-0.055774532,0.08224224,-0.19435245,0.21723263,-0.30480462,-0.1199307,-0.044784542,0.45437655,0.105401665,-0.104807466,-0.10810506,0.025081048,0.068193465,-0.09409499,-0.042804312,-0.338976,-0.045867674,0.1431331},
{0.080120325,0.10256664,-0.07595263,-0.08721196,-0.25059497,-0.23530652,0.23225245,0.08387336,-0.053554572,-0.3906956,0.31093147,0.040030804,0.25193182,0.15153845,0.23299083,0.09572322,0.12771344,0.2860341,-0.17638373,0.29621604,0.18504706,0.012952831,0.014171727,-0.16777709,0.3147907,0.24252753,0.18916541,-0.0049495907,-0.08361915,0.1873967,-0.12847926,0.29066545,-0.52952003,-0.18627955,0.60906154,-0.28036064,-0.07298552,0.010771507,0.26159105,-0.028626595,-0.16387536,-0.0045316713,0.07339865,0.10077323,-0.33399728,-0.27855214,-0.18821569,0.19952847,-0.60720044,0.09252195,-0.15562627,-0.08948291,-0.07495838,-0.18447688,0.2268793,0.09259196,-0.04530275,-0.19311678,-0.07324728,0.04213907,-0.020943258,0.08615745,-0.36818066,-0.14335719},
{0.015495174,0.19594385,-0.17076854,-0.21429405,0.16310328,-0.027556224,-0.3931652,0.03859596,0.050880764,-0.19927175,0.041314706,0.07414529,0.015182436,0.1073928,-0.32627323,0.050545543,0.1125614,0.18198414,-0.4244194,0.0962635,-0.11064249,0.054943938,0.26858687,0.058035422,-0.02210123,-0.21596058,0.36063558,-0.1832268,0.028503295,-0.28966898,-0.111243516,0.20568246,-0.00925937,-0.4536931,0.071613126,-0.1295189,-0.112200886,-0.36351207,-0.12945198,-0.28215453,-0.18690023,-0.040860243,0.23763649,0.030438788,-0.08206829,-0.0395311,-0.40282008,0.10525765,0.20293748,0.09404607,0.2088569,0.09061644,0.06409198,0.019698722,-0.10997113,-0.41194355,0.10774677,-0.076684244,0.13376404,-0.5278804,0.21787424,-0.20737007,0.004077343,0.08437185},
{-0.06474627,-0.0072745667,-0.21289459,0.30066118,0.19451056,-0.5416215,-0.40337023,-0.020945957,0.14155665,0.07405114,-0.106511384,-0.04149326,0.30188513,0.47378215,-0.201278,0.17372195,-0.050935883,-0.1505817,-0.08454115,0.3815619,-0.14755417,0.010905295,0.05347287,-0.23214382,-0.16945608,-0.18673949,-0.14532568,-0.201373,-0.0724365,-0.28444356,-0.097723074,-0.20277013,0.08267219,-0.16340293,0.3041036,0.20530811,0.21326622,0.3748117,0.08757639,-0.02412735,0.08469369,-0.1771793,0.039076492,-0.031211352,-0.28249174,0.4670989,-0.15316692,-0.07584374,-0.022532515,0.13059863,-0.06477021,0.17034812,-0.060002282,-0.0037032473,-0.013899673,-0.37713256,0.15263158,0.045417726,-0.2823665,-0.13341874,0.092754446,-0.29342794,0.18232897,0.011017667},
{-0.020618515,-0.19580847,0.13267952,0.19015926,0.19894968,0.24064137,-0.016830282,0.046638697,0.05368052,-0.0135758575,0.1350773,-0.053427164,-0.049511235,-0.104715094,0.003106687,0.058676127,0.081663765,0.14702126,0.14531931,-0.03444537,-0.030556558,-0.05512346,-0.32510003,0.06564122,-0.29344508,-0.019749079,0.063170366,0.15166678,0.22821859,0.09376149,0.12584686,0.08974785,0.16048506,0.11671792,-0.0030917877,0.005888417,0.08667649,-0.0067024403,-0.116020806,-0.052728266,0.1489709,-0.24739335,0.09893679,-0.042155296,0.28195307,0.16385555,-0.06360779,-0.23179404,-0.31515586,0.016355561,0.0591341,-0.03131816,0.088599354,-0.0004601121,-0.10067229,-0.1599409,0.19744101,0.08121556,-0.19682589,-0.0632293,0.10135398,-0.18759541,-0.028852548,0.024081582},
{-0.32151017,-0.040042844,-0.024228616,-0.2502504,-0.023198446,-0.15683797,-0.16845976,-0.10332479,-0.23017743,-0.103056565,0.021034079,0.23756152,-0.12731722,0.04132717,0.33405867,0.010073125,0.10007138,0.12758312,-0.08519945,0.20282876,-0.27654007,-0.15380055,0.14871429,0.23752593,0.2881379,-0.19611338,0.04797971,0.14765753,-0.050145775,-0.09128526,-0.08274399,-0.0040383614,-0.13312483,-0.025199799,0.13498881,0.0651215,-0.008519081,-0.07857427,-0.2045004,-0.0142790275,-0.37242493,0.4106244,0.20771661,-0.31403303,-0.019221114,0.007874078,-0.055654243,-0.04706747,-0.2815378,0.160112,-0.1287918,0.100949295,0.44292206,0.36185086,0.121988855,0.04567932,0.031941183,0.084176905,-0.19002223,-0.34688103,-0.047414925,0.19157322,-0.09743748,-0.1088357},
{-0.45574194,0.09901469,-0.315886,0.04105265,-0.52071846,0.10950552,-0.17763941,0.03124342,0.106927305,0.0782012,-0.08696518,-0.20728125,-0.034836985,-0.106364645,0.43109283,0.14130002,0.33502135,-0.06577278,0.2151285,-0.32642397,0.029601954,0.055370983,0.14697097,0.099172406,0.041356724,-0.1210733,0.42363015,-0.272871,0.08919883,0.053517427,0.23269728,-0.10673883,-0.17069362,0.04370956,0.1726376,0.01650018,0.23610221,-0.007054325,0.028390007,0.011530071,-0.049705405,0.017284142,-0.23936076,-0.13361286,-0.15824571,0.14424855,0.21101806,0.06694801,0.28693378,-0.02421023,0.19214891,0.14881808,0.25049946,-0.20933937,0.19095427,-0.041207053,-0.019662572,0.3252627,-0.04623636,-0.21900341,-0.046086278,0.04342376,0.118797615,-0.06232901},
{-0.030732641,0.034490537,0.025786994,-0.009057951,-0.50771093,0.058878817,0.38906226,0.12013374,0.29786137,-0.66071725,-0.030224701,-0.29019114,0.13043763,-0.19005534,-0.04970396,0.036772452,0.044279594,0.0010885687,-0.5703742,-0.095905475,0.021965597,0.12308026,0.22070442,-0.21516943,-0.078054056,0.02357419,-0.080428995,0.360847,-0.0054654204,-0.073449016,0.12034751,0.042723127,0.18947038,-0.16713916,-0.2839382,0.12332176,0.14721732,-0.10897909,-0.15387444,-0.04309311,0.17178807,-0.17608209,0.23880666,0.008924831,-0.34351915,0.15429586,-0.014981095,0.034716897,-0.05634978,-0.019455392,-0.17441195,0.11821109,-0.34423584,-0.26643994,-0.31609058,-0.030324237,0.1382813,-0.16784185,-0.28052783,0.27447757,0.056277238,-0.08246916,-0.021495096,-0.14230236},
{0.27304432,0.0861181,0.2850151,-0.0022597807,0.060135245,0.093097575,0.21742582,-0.033963423,0.11454754,0.46857223,-0.023277659,-0.052883502,0.20517899,0.5141498,0.112614185,-0.09579448,0.29068694,0.17221291,-0.08130935,0.16259569,-0.13332856,0.013346702,-0.010338239,0.04168506,0.114929214,0.21397935,0.37912852,0.26229832,0.08652573,-0.3069965,-0.054186903,0.048323564,-0.5460305,0.5985139,-0.29087758,0.10948872,-0.17719293,-0.1153781,0.07786108,-0.06376158,-0.08127234,-0.14486249,-0.09733766,0.066125005,0.022524204,-0.09858515,0.6437247,0.10036463,-0.41609445,0.16341205,-0.32254857,0.01371433,-0.16829816,-0.06876977,0.3201409,0.21020374,0.4450962,-0.17089614,0.019146066,0.054487593,-0.3046519,0.163076,0.12402583,0.2620649},
{0.2540982,0.34138426,0.122370474,0.20256647,0.2642535,0.19235463,0.06513683,0.1392265,0.52013505,0.10328525,0.11699147,-0.15695477,0.07110038,0.2636847,-0.062189005,-0.56495893,-0.030578412,-0.17973644,-0.7187843,0.16610721,0.2802205,0.17088825,0.032543626,-0.041346528,0.059664734,0.2761508,-0.010585989,-0.016316187,-0.037617035,-0.120227344,0.1874303,0.2243037,0.18064407,0.045509905,-0.14414677,0.20578022,0.14800553,-0.32727975,0.26720658,-0.22876833,0.31163073,0.0076286173,0.335621,0.34365287,0.21066071,0.14996786,0.18921328,-0.16710302,0.2540045,0.19603433,-0.44317555,-0.45755577,-0.13388465,-0.42150334,0.11665574,-0.3589024,0.08213353,-0.18746008,0.5424202,-0.3436181,-0.44537473,0.22888069,-0.035593074,0.15005496},
{0.28559643,-0.15875943,0.38804603,-0.30109385,-0.35670096,0.13312751,0.28617623,0.0348746,0.23231219,-0.1410164,-0.32754114,-0.29742151,0.29178885,0.17631471,0.302877,0.12911002,0.07724364,-0.52044004,0.16269697,-0.18945211,0.22954567,-0.12784013,0.1081493,-0.36378407,-0.20261544,0.2944236,-0.10414116,-0.2511556,0.14672777,0.22929943,0.13456115,-0.09050132,0.2988731,-0.1965983,-0.21740526,0.38375077,0.12920508,0.2695752,0.1203566,0.27521837,-0.19915307,0.006812769,0.120163664,0.19316442,-0.19140486,-0.080167726,-0.182335,0.08909499,-0.19140443,0.08090078,-0.50891364,0.2126725,-0.30413395,0.16535394,0.2833072,0.47224212,-0.0907218,0.065886244,0.09832899,0.14487447,-0.20723654,-0.095948935,0.40440643,0.15833469},
{-0.12598045,0.1176973,-0.30439135,-0.057753325,0.12283432,0.1495979,-0.12909111,-0.18603487,-0.1258215,0.32210022,-0.31709078,0.03386883,-0.0776025,-0.12328861,-0.4038776,0.107879646,0.42432073,0.036096673,0.22780193,0.18212563,-0.013393965,0.20622388,-0.107300736,0.29003298,0.4333442,-0.31661633,0.03734576,0.10857704,-0.28097686,0.10837756,-0.07738551,-0.000220532,-0.21031193,0.32883304,0.045468252,0.07603479,0.27822173,0.1361476,-0.16259553,-0.10244536,0.00886894,-0.095417745,0.06962756,0.22434281,0.27201444,-0.034022275,0.1419619,0.13299046,-0.075993255,0.29033694,-0.13770457,0.08341848,-0.42754167,0.28542605,-0.34482253,-0.20614447,0.4065896,-0.19422708,-0.14424537,-0.09900588,0.026349524,-0.27301016,0.25756854,-0.07590206},
{-0.1357504,-0.21328636,-0.14990638,0.12695907,-0.2080007,0.2867172,0.093459174,0.0625966,-0.02391174,-0.045744393,-0.2229868,0.06541359,-0.38343558,0.12866096,-0.30328578,0.08350661,-0.031874962,-0.14429626,0.38897777,0.22778381,-0.12353854,-0.0042982767,0.16059452,0.12944181,-0.056820378,-0.035896882,-0.038854513,0.2257486,0.20419279,-0.14234513,-0.2194428,0.046268348,-0.12277279,-0.1448324,-0.05264276,0.11532655,0.019786995,-0.16172257,-0.22893265,-2.8959726e-06,0.12768377,-0.11163248,0.008111452,-0.32412693,0.052773442,-0.10301633,-0.12972324,-0.1747964,0.15853064,-0.24717472,-0.4391445,0.09408021,0.021863459,0.1693601,-0.22655775,-0.39955232,0.14690308,-0.068941444,-0.0010821427,-0.11205025,0.031401854,0.054936614,-0.26194003,-0.2204163},
{0.31750998,-0.068193965,0.13611339,-0.2096399,0.086438574,-0.33142453,0.16858795,0.3284528,0.15605508,0.0045521455,-0.30733582,-0.18786933,-0.08098263,-0.085164964,-0.008865374,0.30027428,-0.29598436,-0.0041504167,0.160864,-0.1699527,0.22223496,-0.41218477,-0.08767085,-0.010010853,0.09057316,0.09216292,0.0966028,-0.18248777,0.34903896,-0.2900741,-0.24104814,-0.21562065,-0.13034277,0.22107115,-0.05174098,0.068528056,0.094924346,-0.098225236,0.32435814,-0.06747314,-0.07036681,0.15466374,-0.26267973,-0.09942327,-0.017751493,0.10925701,0.18928456,-0.013831443,-0.10381204,-0.09093183,-0.081039146,0.15746331,0.22566715,-0.19453873,0.14505859,-0.07584485,0.13431026,0.05808499,-0.206515,-0.20379107,-0.10841828,0.10365949,0.19071749,-0.0167164},
{0.27919775,-0.121717155,-0.24726872,0.13465913,0.004232464,-0.07692898,-0.01314174,0.11162135,0.08684285,-0.1613265,-0.5383386,-0.07928157,-0.26860982,0.058181986,-0.17078009,0.24402854,0.08540196,-0.010723508,0.21386802,0.18317196,0.18936223,-0.008147833,0.08292564,-0.3781208,0.2669385,-0.090044715,-0.11535204,0.046100464,0.3418011,0.024050616,-0.19751784,-0.03743048,0.33957756,-0.04766461,0.11463901,0.037465777,0.11549241,0.0072059906,-0.16244516,-0.1319206,-0.03480563,-0.09199373,0.13771185,0.45380217,0.33799672,0.085732006,-0.10712697,-0.25043836,-0.12871034,-0.19355431,-0.2883454,-0.044631395,0.14199917,-0.12680638,0.2934457,-0.21937786,0.007212663,0.26791796,0.16110851,0.08216882,-0.08550747,-0.26484814,-0.11241197,0.24467829},
{-0.112645656,0.34387258,0.13089122,0.14386396,0.1490516,-0.03259069,0.05130436,-0.1442123,0.9384516,0.030436458,-0.12954646,0.45468614,-0.31646264,-0.016490152,-0.3723825,-0.022676427,0.64982057,0.0202142,-0.2776511,0.15988414,-0.26542175,-0.0907488,-0.23683697,0.2550547,-0.15723655,0.4965732,0.2552437,0.10281968,-0.25290674,-0.35587633,0.24356,-0.14879392,-0.36346385,0.12380668,-0.027096154,0.27254745,-0.11348151,-0.24620034,-0.41231486,0.28781176,-0.15032752,-0.12283143,-0.20180875,-0.1624757,-0.1521539,0.14639392,0.27469358,-0.25389907,-0.13890733,-0.048028152,-0.29459566,0.22209147,-0.012316595,-0.1714354,-0.21628802,0.10320737,-0.2071423,-0.17074704,-0.200663,-0.17976603,0.014272482,-0.07012218,-0.15011099,-0.19772321},
{0.47343293,0.10263061,0.3964298,0.18223287,-0.31353182,-0.09764619,-0.36390662,0.26350635,-0.746466,-0.35648176,0.41871342,0.053038515,-0.22449964,-0.122429565,-0.2277194,0.24246527,0.22646019,-0.21456942,-0.321339,0.35312396,-0.21248725,-0.15119271,0.059872925,0.027281247,-0.29316342,-0.05081735,0.06534716,-0.119664684,0.0053422065,0.09303664,-0.1837553,0.20038337,0.30780226,-0.039027195,0.23305495,-0.241697,0.21720044,-0.059038144,-0.039038625,0.08499967,0.38405466,0.33552834,-0.016871732,0.34172338,-0.18002544,-0.4067009,-0.06596161,-0.13937393,-0.16447023,0.35834217,0.097256064,0.12939858,0.44428512,-0.15955234,-0.080620736,-0.10672682,-0.2537416,0.05405778,0.17692687,0.3069804,0.22794849,-0.2755129,0.2799008,0.39669886}
};

const double w2[stage2][stage3] = {
